%YAML:1.0
---
opencv_ml_svm:
   format: 3
   svmType: C_SVC
   kernel:
      type: RBF
      gamma: 3.3750000000000002e-02
   C: 1.2500000000000000e+01
   term_criteria: { epsilon:1.1920928955078125e-07, iterations:1000 }
   var_count: 324
   class_count: 10
   class_labels: !!opencv-matrix
      rows: 10
      cols: 1
      dt: i
      data: [ 0, 1, 2, 3, 4, 5, 6, 7, 8, 9 ]
   sv_total: 349
   support_vectors:
      - [ 6.08169734e-01, 6.08169734e-01, 0., 0., 0., 0., 0., 0.,
          5.04169285e-01, 6.62940681e-01, 2.56978780e-01, 0., 0., 0., 0.,
          0., 2.19915256e-01, 6.62940681e-01, 2.07329765e-01, 0., 0., 0.,
          0., 0., 0., 2.60257125e-01, 9.38041687e-01, 0., 0., 0., 0., 0.,
          0., 0., 0., 0., 5.57780266e-01, 5.79829454e-01, 5.79829454e-01,
          0., 0., 0., 0., 0., 1.03377409e-01, 4.23819035e-01,
          4.23819035e-01, 3.12495649e-01, 0., 0., 0., 4.23819035e-01,
          4.23819035e-01, 4.23819035e-01, 4.78937656e-01, 6.16008282e-01,
          6.16008282e-01, 0., 0., 0., 0., 0., 7.44025111e-02,
          4.09555107e-01, 4.09555107e-01, 4.09555107e-01, 0., 0., 0.,
          3.96524668e-01, 4.09555107e-01, 4.09555107e-01, 2.87124306e-01,
          0., 0., 0., 0., 0., 5.51378131e-01, 5.51378131e-01,
          5.51378131e-01, 9.71992984e-02, 5.63685179e-01, 4.86100137e-01,
          0., 0., 0., 0., 3.36374760e-01, 5.63685179e-01, 2.20564961e-01,
          7.05009341e-01, 6.66312933e-01, 0., 0., 5.65733435e-03,
          5.61204031e-02, 1.09942416e-02, 0., 9.09559801e-02,
          5.53118289e-01, 2.76830226e-01, 0., 0., 2.30872050e-01,
          5.53118289e-01, 4.93188620e-01, 3.39406580e-02, 4.35708603e-03,
          7.04554856e-01, 7.04554856e-01, 0., 0., 0., 1.17250429e-02,
          3.90834780e-03, 0., 5.22184446e-02, 3.75232667e-01,
          3.75232667e-01, 8.90363976e-02, 3.75232667e-01, 3.75232667e-01,
          3.75232667e-01, 3.75232667e-01, 3.75232667e-01, 1.03103817e-01,
          2.07882794e-03, 1.44259825e-01, 4.83163983e-01, 4.83163983e-01,
          1.29415512e-01, 1.14850312e-01, 4.83163983e-01, 4.83163983e-01,
          9.25919190e-02, 5.21621346e-01, 4.04110193e-01, 8.07411447e-02,
          1.12574231e-02, 0., 0., 5.21621346e-01, 5.21621346e-01,
          2.46873096e-01, 6.46039009e-01, 3.61865669e-01, 0., 0.,
          3.99048388e-01, 4.73277271e-01, 3.25302072e-02, 1.24216231e-03,
          1.79900546e-02, 2.94544429e-01, 7.12625757e-02, 0., 0.,
          6.61903739e-01, 6.61903739e-01, 1.58115044e-01, 0., 0.,
          6.95551872e-01, 6.95551872e-01, 9.74011049e-02, 4.19792980e-02,
          6.04372993e-02, 1.02110840e-01, 1.19718267e-02, 0., 0.,
          4.01677251e-01, 4.05435532e-01, 6.80769682e-02, 4.05435532e-01,
          4.05435532e-01, 4.05435532e-01, 4.05435532e-01, 8.98933113e-02,
          0., 9.63843167e-02, 4.70921487e-01, 4.70921487e-01,
          3.44390750e-01, 1.69330135e-01, 3.65907818e-01, 4.70921487e-01,
          1.98843777e-01, 4.05593842e-01, 4.05593842e-01, 4.05593842e-01,
          4.05593842e-01, 7.12659508e-02, 2.95268577e-02, 5.44000901e-02,
          4.05593842e-01, 4.05593842e-01, 2.11298093e-01, 5.12562692e-01,
          3.67786050e-01, 1.20659508e-02, 5.86148202e-02, 5.12562692e-01,
          5.12562692e-01, 1.17301397e-01, 9.72890034e-02, 0.,
          1.27894264e-02, 6.82805339e-03, 0., 0., 7.01114535e-01,
          7.01114535e-01, 9.83259156e-02, 0., 6.27035871e-02,
          5.65969229e-01, 5.65969229e-01, 2.00760722e-01, 4.56301905e-02,
          2.24251747e-01, 4.96250570e-01, 1.03965282e-01, 4.98800678e-03,
          1.58520639e-02, 2.85234094e-01, 3.56546879e-01, 5.14534935e-02,
          3.54117334e-01, 4.81247753e-01, 4.81247753e-01, 4.41637367e-01,
          1.29987076e-02, 0., 3.89018320e-02, 5.00829399e-01,
          5.00829399e-01, 4.22758192e-01, 1.47413731e-01, 5.00829399e-01,
          2.01012298e-01, 1.15413843e-02, 1.24809317e-01, 1.64691545e-02,
          3.51670384e-01, 5.73904157e-01, 5.73904157e-01, 4.21868354e-01,
          3.93276140e-02, 6.76281825e-02, 1.09194860e-01, 4.57701907e-02,
          2.40488723e-02, 2.24358011e-02, 1.41005769e-01, 5.68592966e-01,
          5.68592966e-01, 5.68592966e-01, 1.40006579e-02, 3.42480801e-02,
          0., 0., 0., 0., 0., 7.03719914e-01, 7.03719914e-01,
          5.03166132e-02, 0., 8.19256902e-03, 4.31488663e-01,
          4.31488663e-01, 4.31488663e-01, 4.31488663e-01, 4.31488663e-01,
          2.54124433e-01, 1.14350226e-02, 6.51710667e-04, 3.64688481e-03,
          1.13277361e-01, 2.97102779e-01, 2.61303544e-01, 5.16503692e-01,
          5.16503692e-01, 5.16503692e-01, 1.58486068e-01, 1.10141886e-03,
          0., 0., 0., 0., 2.59260654e-01, 0., 8.86571348e-01,
          3.71388108e-01, 0., 0., 0., 0., 6.65584147e-01, 6.65584147e-01,
          3.27644348e-01, 0., 0., 0., 0., 0., 0., 1.34352922e-01,
          6.98204696e-01, 6.98204696e-01, 0., 0., 0., 0., 0., 0., 0., 0.,
          0., 0., 0., 0. ]
      - [ 4.24069941e-01, 4.24069941e-01, 4.24069941e-01, 4.24069941e-01,
          4.24069941e-01, 0., 0., 0., 3.10784936e-01, 5.07391691e-01,
          3.95740628e-01, 1.57134458e-01, 2.02890322e-01, 5.07391691e-01,
          1.12786144e-02, 0., 0., 5.07391691e-01, 5.37565351e-01,
          1.28236994e-01, 1.25809371e-01, 1.68747991e-01, 5.37565351e-01,
          2.46097788e-01, 0., 7.99339041e-02, 5.37565351e-01,
          3.59790921e-01, 5.25645055e-02, 3.50680470e-01, 2.28263259e-01,
          3.13779980e-01, 2.78048590e-02, 4.43113774e-01, 4.43113774e-01,
          4.43113774e-01, 0., 0., 0., 0., 0., 0., 6.74255550e-01,
          6.74255550e-01, 2.89875567e-01, 0., 0., 0., 0., 0., 0., 0., 0.,
          0., 1.32927582e-01, 4.46772665e-01, 5.11531889e-01,
          5.04267693e-01, 5.11531889e-01, 0., 0., 0., 0., 3.18495780e-01,
          1.07375018e-01, 1.67617470e-01, 2.67999053e-01, 8.79990995e-01,
          1.48979872e-02, 0., 0., 6.10358380e-02, 3.18210423e-02,
          5.54415464e-01, 5.54415464e-01, 2.13137999e-01, 5.54415464e-01,
          1.60075739e-01, 7.34926015e-03, 5.95986377e-03, 1.34139406e-02,
          0., 4.89656776e-01, 4.89656776e-01, 1.09616406e-01,
          9.16407183e-02, 1.24547489e-01, 4.89656776e-01, 4.89656776e-01,
          1.13370940e-02, 0., 0., 0., 0., 0., 8.78070965e-02,
          7.01861382e-01, 7.01861382e-01, 8.05216562e-03, 0., 0., 0., 0.,
          0., 0., 0., 0., 0., 0., 0., 0., 0., 0., 0., 0., 0., 0., 0., 0.,
          0., 0., 0., 0., 0., 0., 0., 3.40436446e-03, 6.42429233e-01,
          6.42429233e-01, 0., 0., 4.87556085e-02, 4.07040924e-01,
          9.18765180e-03, 0., 4.23117395e-04, 4.85525459e-01,
          4.85525459e-01, 0., 0., 4.85525459e-01, 4.85525459e-01,
          2.28496164e-01, 0., 0., 0., 0., 0., 0., 5.87902069e-01,
          6.05052531e-01, 5.31263828e-01, 0., 0., 0., 0., 0., 0., 0., 0.,
          0., 0., 7.04028904e-01, 4.07279916e-02, 0., 0., 0., 0., 0., 0.,
          7.04028904e-01, 5.96418202e-01, 5.31615734e-01, 0., 0., 0., 0.,
          0., 0., 5.96418202e-01, 5.15357375e-01, 5.15357375e-01,
          5.15357375e-01, 0., 7.98752606e-02, 1.31116495e-01,
          3.54610324e-01, 3.83253470e-02, 2.17450306e-01, 4.10025030e-01,
          4.10025030e-01, 1.91010356e-01, 3.25112068e-03, 2.69642293e-01,
          4.10025030e-01, 4.10025030e-01, 2.14706570e-01, 4.10025030e-01,
          5.72518229e-01, 1.57253928e-02, 0., 7.80640021e-02,
          5.72518229e-01, 4.76492979e-02, 4.38583270e-02, 2.04098802e-02,
          5.72518229e-01, 4.71571833e-01, 0., 0., 2.89219823e-02,
          2.73328602e-01, 1.73852786e-01, 4.71571833e-01, 4.71571833e-01,
          4.71571833e-01, 4.69126076e-01, 4.69126076e-01, 4.69126076e-01,
          1.85700849e-01, 4.69126076e-01, 7.71480128e-02, 0., 0.,
          2.73057580e-01, 4.97067541e-01, 4.13845927e-01, 9.74495560e-02,
          2.60411706e-02, 4.97067541e-01, 4.97067541e-01, 0., 0.,
          2.69005686e-01, 4.91156340e-01, 4.71927196e-01, 2.28516068e-02,
          0., 4.91156340e-01, 4.91156340e-01, 2.96188761e-02,
          8.86107329e-03, 2.17249855e-01, 4.31218624e-01, 1.13037348e-01,
          4.24795318e-03, 1.69707071e-02, 5.90165317e-01, 5.90165317e-01,
          5.86549900e-02, 1.79532208e-02, 3.07768017e-01, 3.92452627e-01,
          4.99246735e-03, 0., 3.57307434e-01, 7.22427547e-01,
          2.10446358e-01, 0., 5.50722121e-04, 3.80639941e-01,
          1.38709351e-01, 0., 0., 1.05088338e-01, 4.86071199e-01,
          4.86071199e-01, 4.86071199e-01, 4.00726467e-01, 3.09004962e-01,
          1.94633722e-01, 3.43333006e-01, 5.23293555e-01, 5.17526031e-01,
          5.23293555e-01, 1.53252259e-01, 0., 0., 4.72985348e-03,
          2.12103963e-01, 3.99813354e-02, 1.08033881e-01, 1.06620729e-01,
          6.79550231e-01, 6.79550231e-01, 0., 0., 3.62687535e-03,
          8.17106199e-03, 1.26206945e-03, 0., 0., 7.04591453e-01,
          7.04591453e-01, 0., 0., 0., 0., 0., 0., 0., 7.04615593e-01,
          7.04615593e-01, 0., 0., 0., 0., 0., 0., 0., 9.95024860e-01, 0.,
          0., 0., 0., 0., 0., 0., 0., 9.95024860e-01, 0., 0., 0., 0. ]
      - [ 0., 0., 0., 0., 0., 0., 0., 0., 0., 0., 0., 0., 0., 0., 0., 0.,
          0., 0., 0., 0., 0., 0., 0., 0., 0., 0., 0., 0., 0., 0., 0., 0.,
          0., 0., 0., 0., 7.04615593e-01, 0., 0., 0., 0., 0., 0., 0.,
          7.04615593e-01, 7.04615593e-01, 0., 0., 0., 0., 0., 0., 0.,
          7.04615593e-01, 0., 0., 0., 0., 0., 0., 0., 0., 0., 0., 0., 0.,
          0., 0., 0., 0., 0., 0., 6.65594995e-01, 6.65594995e-01, 0., 0.,
          0., 0., 0., 0., 3.27600181e-01, 5.75688362e-01, 5.75688362e-01,
          2.33883387e-04, 2.91993638e-04, 0., 0., 0., 0., 5.75688362e-01,
          5.72816551e-01, 5.72816551e-01, 1.62553799e-04, 5.17181994e-04,
          9.86811891e-02, 1.36076156e-02, 6.28745707e-04, 0.,
          5.72816551e-01, 4.80020672e-01, 7.48996139e-02, 0., 0.,
          2.00984299e-01, 1.65896609e-01, 4.80020672e-01, 4.80020672e-01,
          4.80020672e-01, 0., 0., 0., 0., 0., 0., 0., 0., 0.,
          6.48935378e-01, 6.48935378e-01, 0., 0., 0., 0., 0., 0.,
          3.88956338e-01, 6.84916437e-01, 6.84916437e-01, 2.03134934e-03,
          9.24526656e-04, 7.29189813e-02, 6.63486049e-02, 8.66039016e-04,
          0., 2.12641686e-01, 5.18682778e-01, 5.18682778e-01,
          5.80223138e-03, 1.60339847e-03, 3.91316295e-01, 5.18682778e-01,
          1.04426537e-02, 3.70868802e-04, 1.85608700e-01, 5.24665177e-01,
          3.03270578e-01, 6.10259653e-04, 4.48711775e-03, 5.24665177e-01,
          5.24665177e-01, 1.74268544e-01, 7.72254774e-03, 2.15677336e-01,
          9.93098617e-02, 1.22834193e-02, 0., 0., 5.01219690e-01,
          5.01219690e-01, 5.01219690e-01, 4.49900210e-01, 1.70020595e-01,
          5.57806849e-01, 5.57806849e-01, 5.57806849e-01, 0., 0., 0.,
          3.49308597e-03, 1.63204724e-03, 2.46919960e-01, 6.11793578e-01,
          6.11793578e-01, 2.54371576e-02, 0., 1.60850376e-01,
          4.26129729e-01, 1.51525568e-02, 2.47930060e-03, 1.92266852e-01,
          5.09805441e-01, 5.09805441e-01, 3.25567322e-04, 5.62563364e-04,
          4.53940779e-01, 5.09805441e-01, 6.01029843e-02, 0.,
          7.43543729e-02, 1.46519855e-01, 1.01544149e-01, 2.22348678e-03,
          1.05959782e-03, 6.91461504e-01, 6.91461504e-01, 6.98416382e-02,
          1.50707812e-04, 1.40054515e-02, 2.49345601e-03, 0., 0.,
          7.83654861e-04, 6.99463785e-01, 6.99463785e-01, 1.20090552e-01,
          9.11386870e-03, 2.63767713e-03, 0., 0., 0., 0., 6.78260446e-01,
          6.78260446e-01, 2.63209760e-01, 6.22507781e-02, 0.,
          3.38551998e-01, 4.64963436e-01, 4.64963436e-01, 4.64963436e-01,
          4.64963436e-01, 1.18792087e-01, 3.82890366e-02, 2.93598510e-03,
          1.96999330e-02, 3.67156982e-01, 2.91907459e-01, 1.83857769e-01,
          1.15931757e-01, 4.99113232e-01, 4.99113232e-01, 4.76971596e-01,
          2.20927633e-02, 3.92302759e-02, 2.98620369e-02, 1.99863687e-02,
          0., 0., 6.96721494e-01, 6.96721494e-01, 1.44305959e-01,
          9.13811009e-03, 2.10473966e-03, 0., 0., 0., 0., 7.02870488e-01,
          7.02870488e-01, 7.02127367e-02, 0., 0., 0., 0., 0., 0.,
          9.74784195e-01, 0., 0., 0., 0., 0., 0., 0., 0., 0., 0., 0., 0.,
          0., 0., 1.98505968e-01, 5.59606552e-01, 5.59606552e-01,
          5.59606552e-01, 1.23592794e-01, 1.59222540e-02, 0., 0., 0.,
          1.31951151e-02, 8.06067660e-02, 1.64236307e-01, 6.24939442e-01,
          6.24939442e-01, 4.22287643e-01, 2.62654815e-02, 0., 0., 0., 0.,
          0., 4.16743934e-01, 7.09095418e-01, 5.54410398e-01,
          9.51782688e-02, 0., 0., 0., 0., 0., 0., 0., 0., 0., 0., 0., 0.,
          0., 0., 0., 0., 0., 0., 0., 0., 0., 0., 0., 0., 0., 0., 0., 0. ]
      - [ 0., 0., 0., 0., 0., 0., 0., 0., 0., 6.29161716e-01,
          7.72300124e-01, 0., 0., 0., 0., 0., 0., 0., 5.78770876e-01,
          5.68742454e-01, 0., 0., 0., 0., 0., 2.83070430e-02,
          5.78770876e-01, 5.71569443e-01, 3.15637402e-02, 0., 0., 0., 0.,
          1.14983588e-01, 5.71569443e-01, 5.71569443e-01, 0., 0., 0., 0.,
          0., 0., 4.93165374e-01, 6.12646282e-01, 6.12646282e-01, 0., 0.,
          0., 0., 0., 0., 0., 0., 0., 3.24014902e-01, 9.41076875e-01, 0.,
          0., 0., 0., 0., 0., 0., 6.96059585e-01, 6.96059585e-01,
          9.90453735e-02, 0., 4.93740430e-03, 9.67788398e-02,
          2.22053342e-02, 0., 6.60302490e-02, 5.15569091e-01,
          5.15569091e-01, 1.05564214e-01, 3.65934260e-02, 3.35679293e-01,
          5.15569091e-01, 1.07065201e-01, 2.94596590e-02, 2.44789958e-01,
          3.52420777e-01, 2.62872458e-01, 2.87492841e-01, 4.53424156e-02,
          2.93380648e-01, 2.24082783e-01, 4.40192074e-01, 4.40192074e-01,
          4.40192074e-01, 0., 0., 0., 0., 0., 5.64475320e-02,
          6.79908574e-01, 6.79908574e-01, 2.55880684e-01, 0., 0., 0., 0.,
          0., 0., 0., 0., 0., 2.68926024e-01, 6.78566396e-01,
          6.78566396e-01, 0., 0., 0., 0., 0., 0., 4.61009115e-01,
          4.61009115e-01, 4.15440679e-01, 0., 1.65014644e-03,
          4.61009115e-01, 4.29902792e-01, 6.68729469e-03, 1.87683664e-02,
          3.27159911e-01, 5.20075500e-01, 3.24687332e-01, 9.18728765e-03,
          7.66009688e-02, 5.20075500e-01, 4.84667003e-01, 1.23455497e-02,
          1.96672156e-02, 3.80943537e-01, 3.80943537e-01, 3.35818797e-01,
          1.18928952e-02, 1.12119742e-01, 3.80943537e-01, 3.80943537e-01,
          3.80943537e-01, 3.80943537e-01, 5.67644298e-01, 2.03759611e-01,
          0., 3.23550601e-04, 3.71847361e-01, 4.86337133e-02,
          2.90258229e-01, 2.88942516e-01, 5.67644298e-01, 5.66126406e-01,
          2.19527632e-02, 0., 1.20803357e-04, 1.79909259e-01,
          4.47851402e-04, 0., 5.66126406e-01, 5.66126406e-01,
          7.91660324e-03, 6.92367017e-01, 6.92367017e-01, 1.85152590e-01,
          0., 0., 0., 0., 0., 3.97670060e-01, 3.97670060e-01,
          3.97670060e-01, 1.85384586e-01, 2.68935692e-02, 3.75838101e-01,
          3.97670060e-01, 2.00052574e-01, 3.83530080e-01, 4.85703856e-01,
          4.85703856e-01, 1.17417194e-01, 7.17963232e-03, 3.73390436e-01,
          4.85703856e-01, 2.41889909e-01, 3.10003106e-02, 2.73301512e-01,
          4.16287154e-01, 2.27008969e-01, 5.01549654e-02, 3.45884333e-03,
          5.74991822e-01, 5.74991822e-01, 1.19244948e-01, 1.08278811e-01,
          2.82361537e-01, 4.71466631e-01, 4.00621332e-02, 9.11922194e-04,
          1.65436044e-01, 6.25312626e-01, 2.12719902e-01, 2.09101243e-03,
          3.71474996e-02, 5.52133083e-01, 1.02744795e-01, 3.29457968e-03,
          5.50651364e-02, 4.90167230e-01, 4.90167230e-01, 7.97651187e-02,
          1.18686855e-01, 4.90167230e-01, 4.90167230e-01, 0.,
          5.64281464e-01, 5.64281464e-01, 5.64281464e-01, 1.97798923e-01,
          0., 0., 0., 0., 1.03443317e-01, 3.14071387e-01, 4.68633860e-01,
          4.68633860e-01, 4.68633860e-01, 4.68633860e-01, 2.85011288e-02,
          1.94584429e-02, 7.94746354e-02, 1.53720483e-01, 2.07264163e-02,
          1.35221574e-02, 2.76118759e-02, 6.93233490e-01, 6.93233490e-01,
          7.17527941e-02, 2.64324783e-03, 4.21198532e-02, 6.67723315e-03,
          0., 0., 1.00237736e-03, 7.04548538e-01, 7.04548538e-01,
          1.17862830e-02, 0., 2.31001014e-03, 0., 0., 4.45500342e-03,
          3.52920443e-01, 8.91240597e-01, 2.68747002e-01, 0., 0., 0., 0.,
          0., 7.11357743e-02, 6.69808328e-01, 6.69808328e-01,
          2.40697354e-01, 1.58842310e-01, 8.61388966e-02, 1.95052177e-02,
          0., 1.44837111e-01, 5.37989616e-01, 5.04681647e-01,
          6.54485881e-01, 0., 0., 0., 0., 0., 2.73517314e-02,
          1.56966388e-01, 5.01170874e-01, 6.75083578e-01, 5.10846317e-01,
          0., 0., 0., 0., 0., 0., 3.27822864e-02, 7.04235494e-01,
          7.04235494e-01, 0., 0., 0., 0., 0., 0., 0., 0., 0., 0., 0., 0.,
          0., 0., 0., 0., 0., 0., 0., 0., 0., 0., 0., 0., 0., 0., 0., 0.,
          0., 0. ]
      - [ 0., 0., 0., 0., 0., 0., 0., 0., 0., 0., 0., 0., 0., 0., 0., 0.,
          0., 0., 4.05091256e-01, 9.01551425e-01, 0., 0., 0., 0., 0., 0.,
          0., 6.87814891e-01, 6.87814891e-01, 0., 0., 3.62138562e-02,
          1.86381885e-03, 0., 0., 2.13635609e-01, 4.91790533e-01,
          4.91790533e-01, 0., 3.74754309e-03, 5.37684299e-02,
          2.29229801e-03, 1.57309175e-01, 4.91790533e-01, 4.91790533e-01,
          4.98751611e-01, 0., 0., 9.32999887e-04, 2.29774532e-03, 0.,
          4.98751611e-01, 4.98751611e-01, 4.98751611e-01, 1.73068583e-01,
          6.93945169e-01, 6.93945169e-01, 0., 0., 0., 0., 0., 0.,
          5.41944325e-01, 5.41944325e-01, 2.12996334e-01, 0., 0.,
          1.30995121e-02, 1.20549984e-01, 2.31096864e-01, 5.41944325e-01,
          4.35601801e-01, 4.35601801e-01, 2.08403960e-01, 0., 0.,
          5.89221604e-02, 4.35601801e-01, 4.35601801e-01, 4.35601801e-01,
          5.57639241e-01, 5.57639241e-01, 1.03277780e-01, 3.57284036e-04,
          1.37698069e-01, 5.57639241e-01, 1.78534880e-01, 5.91550348e-03,
          3.14235594e-03, 3.74059796e-01, 3.74059796e-01, 3.74059796e-01,
          1.32998293e-02, 3.74059796e-01, 3.74059796e-01, 3.74059796e-01,
          3.74059796e-01, 1.28999501e-01, 3.33492644e-02, 2.72049475e-02,
          6.00732341e-02, 1.99257466e-03, 4.90721315e-03, 5.08568585e-01,
          6.01935565e-01, 6.01935565e-01, 7.21506551e-02, 2.27290913e-01,
          6.86105728e-01, 6.86105728e-01, 1.60665181e-03, 2.20976584e-03,
          0., 0., 0., 0., 3.81232709e-01, 4.83628005e-01, 3.69389176e-01,
          1.85402855e-03, 2.55000405e-03, 4.83628005e-01, 4.83628005e-01,
          8.33296925e-02, 6.88537210e-02, 1.83292538e-01, 4.57732201e-01,
          4.57732201e-01, 0., 0., 4.57732201e-01, 4.57732201e-01,
          3.40775043e-01, 8.73449072e-02, 4.80951130e-01, 4.80951130e-01,
          2.26497263e-01, 9.27475485e-05, 6.17547855e-02, 4.80951130e-01,
          4.80951130e-01, 6.84579909e-02, 1.00693241e-01, 2.23793477e-01,
          5.37669599e-01, 2.63761610e-01, 4.94526932e-04, 6.80771098e-02,
          5.37669599e-01, 5.37669599e-01, 5.43315820e-02, 1.11572314e-02,
          0., 2.95345951e-02, 3.30130346e-02, 0., 0., 6.84717655e-01,
          6.84717655e-01, 2.31356710e-01, 0., 2.44119484e-02,
          6.45549417e-01, 6.45549417e-01, 3.68798226e-01, 1.80577543e-02,
          0., 1.47878215e-01, 3.58076394e-02, 1.60875323e-03,
          3.83878797e-01, 3.83878797e-01, 3.83878797e-01, 1.53315410e-01,
          1.32009760e-01, 3.83878797e-01, 3.83878797e-01, 2.66561449e-01,
          3.83878797e-01, 4.09148932e-01, 4.09148932e-01, 4.09148932e-01,
          2.55187787e-02, 1.98004648e-01, 4.09148932e-01, 3.39785814e-01,
          5.98922186e-02, 4.09148932e-01, 3.65820378e-01, 3.65820378e-01,
          3.65820378e-01, 1.59209102e-01, 1.85002387e-01, 3.65820378e-01,
          3.65820378e-01, 3.65820378e-01, 3.65820378e-01, 1.38441145e-01,
          2.19624057e-01, 9.18088667e-03, 5.94920665e-03, 7.97196850e-03,
          6.22383356e-01, 6.22383356e-01, 3.85990471e-01, 4.99121360e-02,
          0., 0., 0., 0., 0., 6.98560417e-01, 6.98560417e-01,
          1.30589202e-01, 0., 2.66428734e-03, 4.61078674e-01,
          5.10253608e-01, 5.10253608e-01, 5.10253608e-01, 0.,
          3.21783759e-02, 1.35801136e-02, 2.66428734e-03, 3.42108369e-01,
          5.18361665e-02, 1.36959940e-01, 6.13521516e-01, 6.13521516e-01,
          2.31027771e-02, 9.52777117e-02, 8.32363889e-02, 2.93315262e-01,
          4.62815136e-01, 5.37599698e-02, 2.78013088e-02, 2.12428108e-01,
          5.87501347e-01, 5.87501347e-01, 1.16433287e-02, 5.42598730e-03,
          2.01658845e-01, 1.77156888e-02, 3.95269878e-02, 4.48669404e-01,
          4.48669404e-01, 4.43136364e-01, 2.91088462e-01, 3.24769735e-01,
          4.48669404e-01, 5.61407059e-02, 1.56428767e-04, 2.79208440e-02,
          2.80821353e-01, 2.43460387e-01, 1.61910011e-03, 1.31236687e-01,
          6.07651234e-01, 6.07651234e-01, 3.15140963e-01, 0., 0., 0., 0.,
          0., 0., 7.82862604e-01, 6.15883887e-01, 0., 0., 0., 0.,
          7.04615593e-01, 7.04615593e-01, 0., 0., 0., 0., 0., 0., 0.,
          5.51917017e-01, 8.28924358e-01, 0., 0., 0., 0., 0., 0.,
          1.39175598e-02, 1.65253580e-01, 7.93117404e-01, 5.79264283e-01,
          0., 0., 0., 0., 2.82143295e-01, 5.13053477e-01, 5.13053477e-01,
          5.13053477e-01, 2.65336186e-01, 1.79083437e-01, 1.50688156e-01,
          2.04619505e-02, 0., 6.05261177e-02, 4.40601259e-01,
          1.31337032e-01, 4.40601259e-01, 4.40601259e-01, 4.40601259e-01,
          4.40601259e-01, 6.35496005e-02, 0., 0., 0., 0., 0., 0.,
          7.05690324e-01, 7.03531623e-01, 0. ]
      - [ 0., 0., 0., 0., 0., 0., 0., 0., 0., 0., 0., 0., 0., 0., 0., 0.,
          0., 0., 0., 0., 0., 0., 0., 0., 0., 0., 0., 0., 0., 0., 0., 0.,
          0., 0., 0., 0., 0., 0., 0., 0., 0., 0., 0., 0., 0., 0., 0., 0.,
          0., 0., 0., 0., 0., 0., 6.95345700e-01, 1.54843047e-01, 0., 0.,
          0., 0., 0., 4.55088243e-02, 6.95345700e-01, 7.02810764e-01,
          1.34972781e-02, 0., 0., 0., 0., 0., 7.01146349e-02,
          7.02810764e-01, 6.96187437e-01, 1.61407155e-03, 0., 0., 0., 0.,
          0., 1.53927505e-01, 6.96187437e-01, 0., 0., 0., 0., 0., 0., 0.,
          0., 0., 0., 0., 0., 0., 0., 0., 0., 0., 0., 0., 0., 0., 0., 0.,
          0., 0., 0., 0., 4.48237509e-01, 4.48237509e-01, 4.48237509e-01,
          3.09684753e-01, 3.09346557e-01, 0., 0., 1.59778986e-02,
          4.48237509e-01, 5.48903823e-01, 5.71161509e-02, 2.69576441e-02,
          1.32369280e-01, 5.48903823e-01, 0., 0., 2.62910217e-01,
          5.48903823e-01, 5.96771538e-01, 2.46845448e-04, 6.70885609e-04,
          4.91398126e-02, 1.67055070e-01, 7.29563413e-04, 6.90218076e-05,
          5.01443446e-01, 5.96771538e-01, 6.99747741e-01, 1.26572986e-05,
          1.30382876e-04, 9.76785785e-04, 1.03109770e-01, 8.25368043e-04,
          2.54112936e-04, 5.55669852e-02, 6.99747741e-01, 5.77701271e-01,
          5.96462523e-05, 1.78938775e-04, 0., 2.10061017e-03,
          1.81918120e-04, 7.42053380e-05, 5.71620107e-01, 5.77701271e-01,
          5.02830267e-01, 0., 0., 0., 0., 0., 4.86274838e-01,
          5.02830267e-01, 5.02830267e-01, 8.24300423e-02, 3.45018327e-01,
          5.37275374e-01, 5.37275374e-01, 5.37275374e-01, 0., 0., 0.,
          5.29867858e-02, 1.30370378e-01, 9.06765927e-03, 5.59872724e-02,
          6.89199924e-01, 6.89199924e-01, 0., 0., 2.20302735e-02,
          1.49760544e-01, 2.82040298e-01, 0., 1.19766481e-02,
          4.97299105e-01, 7.46074438e-01, 1.58075872e-03, 7.65787554e-05,
          3.64311785e-02, 3.28024119e-01, 2.93893844e-01, 4.50528860e-05,
          2.20963659e-04, 5.96142411e-01, 5.96142411e-01, 9.99521231e-04,
          6.28200360e-04, 1.37544451e-02, 4.43522066e-01, 3.03736091e-01,
          2.22060946e-04, 6.66182837e-04, 5.08674145e-01, 5.08674145e-01,
          8.51219222e-02, 1.16100989e-01, 3.25100243e-01, 5.08674145e-01,
          9.80923921e-02, 0., 0., 2.32161433e-02, 4.62286383e-01,
          3.61090750e-01, 4.62286383e-01, 4.62286383e-01, 4.62286383e-01,
          0., 0., 0., 0., 9.95024860e-01, 0., 0., 0., 0., 0., 0.,
          4.30052839e-02, 7.03961372e-01, 7.03961372e-01, 0., 0., 0., 0.,
          0., 0., 7.04060635e-03, 2.16875270e-01, 9.71198738e-01, 0., 0.,
          0., 0., 0., 0., 0., 7.04615593e-01, 7.04615593e-01, 0., 0., 0.,
          0., 2.39633780e-04, 0., 0., 6.99954808e-01, 6.99954808e-01,
          1.06328681e-01, 4.21765223e-02, 7.38644786e-03, 3.19391082e-04,
          9.65732688e-05, 0., 0., 5.27966730e-02, 5.53079903e-01,
          5.53079903e-01, 5.53079903e-01, 2.72024482e-01, 1.32063069e-04,
          0., 0., 0., 0., 0., 0., 0., 0., 0., 0., 0., 0., 0., 0., 0., 0.,
          0., 0., 0., 0., 0., 0., 0., 0., 0., 0., 0., 0., 0., 0., 0., 0.,
          0., 0., 0., 0., 0., 0., 0., 0., 0., 0., 0., 0., 0., 0., 0., 0.,
          0., 0., 0., 0., 0., 0. ]
      - [ 0., 0., 0., 0., 0., 0., 0., 0., 0., 0., 0., 0., 0., 0., 0., 0.,
          0., 0., 7.04615593e-01, 0., 0., 0., 0., 0., 0., 0.,
          7.04615593e-01, 4.98753130e-01, 4.98753130e-01, 4.98753130e-01,
          0., 0., 0., 0., 0., 4.98753130e-01, 5.25229514e-01,
          5.25229514e-01, 2.76671529e-01, 1.14503436e-01, 3.14046666e-02,
          0., 6.61324477e-03, 2.76528865e-01, 5.25229514e-01,
          5.56611717e-01, 1.26167461e-01, 4.48874576e-04, 1.11504197e-02,
          1.17235593e-02, 0., 2.20933124e-01, 5.56611717e-01,
          5.56611717e-01, 5.22352993e-01, 5.22352993e-01, 5.22352993e-01,
          0., 0., 0., 0., 0., 4.19792086e-01, 4.49207217e-01,
          4.49207217e-01, 8.98509473e-02, 0., 0., 0., 4.24607188e-01,
          4.49207217e-01, 4.49207217e-01, 4.43860680e-01, 4.43860680e-01,
          4.43860680e-01, 0., 0., 0., 2.51325041e-01, 4.02620256e-01,
          4.23393428e-01, 4.19797629e-01, 4.19797629e-01, 3.29524070e-01,
          6.65254667e-02, 3.57583947e-02, 1.91265065e-02, 4.19797629e-01,
          4.19797629e-01, 4.19797629e-01, 2.14170158e-01, 4.92396653e-01,
          4.92396653e-01, 4.92396653e-01, 3.79388273e-01, 1.51984498e-03,
          1.05974361e-01, 2.28862375e-01, 1.19597085e-01, 6.26677424e-02,
          1.38181761e-01, 3.80102456e-01, 1.04783796e-01, 4.08422351e-02,
          1.18970692e-01, 5.78864872e-01, 5.78864872e-01, 3.60207677e-01,
          8.13715607e-02, 7.01330841e-01, 7.01330841e-01, 0., 0.,
          1.71188396e-04, 4.58506085e-02, 1.56138586e-02, 1.73718724e-02,
          1.41388118e-01, 4.99915838e-01, 3.57175916e-01, 0., 0.,
          2.83837229e-01, 4.99915838e-01, 4.99915838e-01, 1.30884290e-01,
          2.10107312e-01, 5.42628229e-01, 5.42628229e-01, 1.09947861e-04,
          0., 6.56758621e-02, 5.42628229e-01, 2.49416783e-01,
          2.40375586e-02, 9.12161171e-02, 4.45636928e-01, 3.66397321e-01,
          4.05237265e-03, 5.25759254e-03, 6.30473122e-02, 5.66107631e-01,
          5.66107631e-01, 9.06241313e-02, 2.45547891e-01, 5.48483908e-01,
          5.48483908e-01, 1.04613736e-01, 3.96642424e-02, 5.40771596e-02,
          5.48483908e-01, 1.27580389e-01, 2.59936135e-03, 7.71657098e-03,
          2.95827180e-01, 4.03454334e-01, 7.63214938e-03, 9.32580209e-04,
          5.79087615e-01, 5.79087615e-01, 2.70415992e-01, 0.,
          2.17964780e-03, 7.02234387e-01, 7.02234387e-01, 0., 0.,
          6.02315413e-04, 7.78592080e-02, 2.56273039e-02, 0.,
          3.56727690e-01, 4.29069906e-01, 4.29069906e-01, 0., 0.,
          4.63013947e-02, 4.29069906e-01, 4.29069906e-01, 3.60432655e-01,
          4.91916418e-01, 4.91916418e-01, 4.91916418e-01, 3.12866271e-02,
          2.07959488e-01, 1.14052489e-01, 4.01247948e-01, 1.81601554e-01,
          1.33897498e-01, 4.02789176e-01, 4.02789176e-01, 7.51771182e-02,
          1.24045119e-01, 4.02789176e-01, 3.87663618e-02, 4.02789176e-01,
          4.02789176e-01, 4.02789176e-01, 4.53072309e-01, 4.53072309e-01,
          9.19617191e-02, 0., 3.46494228e-01, 4.53072309e-01,
          4.53072309e-01, 1.28707781e-01, 1.71159044e-01, 2.23103520e-02,
          1.43484250e-01, 4.11393270e-02, 0., 4.15936485e-03,
          6.82325006e-01, 6.82325006e-01, 1.98137403e-01, 0., 0.,
          5.60878634e-01, 5.76897562e-01, 5.76897562e-01, 1.18287183e-01,
          0., 6.08727569e-03, 2.02909182e-03, 0., 2.52877563e-01,
          1.35805517e-01, 4.40899193e-01, 4.40899193e-01, 4.40899193e-01,
          4.40899193e-01, 1.00188501e-01, 1.58707708e-01, 3.16877514e-01,
          1.99899212e-01, 1.34675264e-01, 2.01951154e-02, 9.52374265e-02,
          5.52675188e-01, 5.52675188e-01, 5.52675188e-01, 3.67695726e-02,
          9.59375352e-02, 1.06325388e-01, 1.73164345e-02, 2.02656048e-03,
          4.82820719e-01, 7.32476413e-01, 3.67140740e-01, 2.40379795e-01,
          7.16187209e-02, 1.17210172e-01, 7.74861053e-02, 3.85743193e-02,
          0., 0., 6.59873128e-01, 6.59873128e-01, 3.35208744e-01,
          6.98750094e-03, 5.13948090e-02, 5.46874537e-04, 4.24404949e-04,
          0., 0., 2.84283996e-01, 6.74771011e-01, 6.74771011e-01,
          4.25910465e-02, 0., 0., 9.30854380e-02, 5.73181570e-01,
          5.73181570e-01, 5.73181570e-01, 0., 0., 0., 0., 0.,
          2.38989433e-03, 6.92766383e-02, 5.74299693e-01, 5.74299693e-01,
          5.74299693e-01, 0., 0., 0., 0., 0., 0., 0., 7.01029301e-01,
          7.01029301e-01, 1.00201197e-01, 8.80450662e-03, 0., 0., 0., 0.,
          0., 7.13884056e-01, 6.36410773e-01, 2.74668485e-01,
          5.27456999e-02, 0., 0., 0., 0., 0., 9.95024860e-01, 0., 0., 0.,
          0., 0., 0., 0., 0., 9.80139673e-01, 0., 0., 0., 0. ]
      - [ 0., 0., 0., 0., 0., 0., 0., 0., 0., 0., 0., 0., 0., 0., 0., 0.,
          0., 0., 0., 0., 0., 0., 0., 0., 0., 0., 0., 0., 0., 0., 0., 0.,
          0., 0., 0., 0., 0., 0., 0., 0., 0., 0., 0., 0., 0., 0., 0., 0.,
          0., 0., 0., 0., 0., 0., 7.04615593e-01, 0., 0., 0., 0., 0., 0.,
          0., 7.04615593e-01, 7.04615593e-01, 0., 0., 0., 0., 0., 0., 0.,
          7.04615593e-01, 7.04615593e-01, 0., 0., 0., 0., 0., 0., 0.,
          7.04615593e-01, 0., 0., 0., 0., 0., 0., 0., 0., 0., 0., 0., 0.,
          0., 0., 0., 0., 0., 0., 0., 0., 0., 0., 0., 0., 0., 0., 0.,
          4.37638521e-01, 4.37638521e-01, 4.37638521e-01, 3.62148911e-01,
          3.13634664e-01, 0., 0., 0., 4.37638521e-01, 5.53096712e-01,
          2.02825785e-01, 6.33538738e-02, 1.77697524e-01, 5.53096712e-01,
          5.09134145e-04, 0., 0., 5.53096712e-01, 5.86767435e-01, 0., 0.,
          7.00132772e-02, 5.48312843e-01, 1.62796554e-04, 0., 0.,
          5.86767435e-01, 6.36401117e-01, 0., 0., 5.72210997e-02,
          4.14371818e-01, 3.61600600e-04, 0., 9.30320770e-02,
          6.36401117e-01, 6.35401368e-01, 0., 0., 9.87037551e-03,
          3.22240293e-01, 1.38569558e-02, 0., 2.86458105e-01,
          6.35401368e-01, 4.89394158e-01, 0., 0., 4.41337982e-03,
          1.49361983e-01, 1.21477932e-01, 4.89394158e-01, 4.89394158e-01,
          4.89394158e-01, 2.48851970e-01, 4.82287019e-01, 4.82287019e-01,
          4.82287019e-01, 4.82287019e-01, 0., 0., 0., 5.34087941e-02,
          2.89802969e-01, 6.77031204e-02, 6.40078858e-02, 6.42783582e-01,
          6.47986412e-01, 6.51198206e-04, 0., 0., 2.60396928e-01,
          2.51336992e-01, 0., 0., 3.40443641e-01, 7.79638767e-01,
          2.06498764e-04, 0., 0., 4.53111589e-01, 2.61774659e-01, 0., 0.,
          5.66112936e-01, 5.66112936e-01, 2.71392949e-02, 0.,
          1.93835646e-02, 5.32673478e-01, 3.99601191e-01, 0., 0.,
          4.56646353e-01, 4.56646353e-01, 4.56646353e-01, 0.,
          4.06717248e-02, 4.56646353e-01, 4.00314659e-01, 0., 0.,
          2.01780245e-01, 4.00314659e-01, 4.00314659e-01, 4.00314659e-01,
          3.92462075e-01, 4.00314659e-01, 0., 0., 0., 0., 9.95024860e-01,
          0., 0., 0., 0., 0., 0., 0., 0., 9.95024860e-01, 0., 0., 0., 0.,
          0., 0., 0., 0., 9.95024860e-01, 0., 0., 0., 0., 0., 0., 0.,
          7.04102218e-01, 7.04102218e-01, 3.80978771e-02, 0., 0., 0., 0.,
          0., 0., 4.88304228e-01, 6.42579496e-01, 5.85008800e-01, 0., 0.,
          0., 0., 0., 0., 2.47307032e-01, 7.17622280e-01, 6.30065680e-01,
          1.33192539e-01, 4.43975106e-02, 0., 0., 0., 0., 0., 0., 0., 0.,
          0., 0., 0., 0., 0., 0., 0., 0., 0., 0., 0., 0., 0., 0., 0., 0.,
          0., 0., 0., 0., 0., 0., 0., 0., 0., 0., 0., 0., 0., 0., 0., 0.,
          0., 0., 0., 0., 0., 0., 0., 0., 0., 0., 0., 0., 0., 0., 0. ]
      - [ 0., 0., 0., 0., 0., 0., 0., 0., 0., 0., 0., 0., 0., 0., 0., 0.,
          0., 0., 6.74369991e-01, 6.74369991e-01, 2.16643199e-01, 0., 0.,
          0., 0., 0., 1.91790417e-01, 5.27575493e-01, 5.27575493e-01,
          6.30503986e-03, 0., 0., 1.29665628e-01, 2.97429442e-01,
          2.33251452e-01, 5.27575493e-01, 4.74170178e-01, 1.02799997e-01,
          0., 0., 0., 2.92141557e-01, 4.74170178e-01, 4.74170178e-01,
          4.74170178e-01, 0., 0., 0., 0., 0., 0., 0., 0., 0., 0., 0., 0.,
          0., 0., 0., 0., 0., 0., 5.75688422e-01, 5.75688422e-01, 0., 0.,
          0., 0., 0., 0., 5.75688422e-01, 7.01176822e-01, 7.01176822e-01,
          6.75487816e-02, 8.33773240e-03, 1.87604334e-02, 8.58641323e-03,
          5.68927974e-02, 8.44823942e-03, 3.65583710e-02, 4.78207558e-01,
          4.78207558e-01, 1.37854759e-02, 1.22373854e-03, 3.62844067e-03,
          4.78207558e-01, 4.78207558e-01, 2.29664400e-01, 1.65961653e-01,
          4.12828922e-01, 4.12828922e-01, 0., 6.67701475e-03,
          3.80187482e-03, 4.12828922e-01, 4.12828922e-01, 3.79049182e-01,
          4.12828922e-01, 4.89750445e-01, 1.87823728e-01, 0.,
          1.75671875e-02, 1.00027118e-02, 0., 4.89750445e-01,
          4.89750445e-01, 4.89750445e-01, 0., 7.04615593e-01,
          7.04615593e-01, 0., 0., 0., 0., 0., 0., 4.12446827e-01,
          4.12446827e-01, 4.12446827e-01, 3.57215792e-01, 4.12446827e-01,
          1.59124374e-01, 0., 0., 4.03121054e-01, 4.46688503e-01,
          4.46688503e-01, 2.12737560e-01, 3.52733433e-01, 4.46688503e-01,
          4.46688503e-01, 8.35219994e-02, 1.13452692e-02, 1.43641263e-01,
          3.46799493e-01, 3.46799493e-01, 3.46799493e-01, 3.34685266e-01,
          2.06474259e-01, 3.46799493e-01, 3.46799493e-01, 3.46799493e-01,
          3.46799493e-01, 4.87714678e-01, 4.87714678e-01, 1.42712472e-03,
          1.51376044e-02, 3.68193537e-01, 4.87714678e-01, 2.29106769e-01,
          1.30708456e-01, 2.75970608e-01, 4.28291768e-01, 1.07887514e-01,
          0., 2.68276185e-02, 4.28291768e-01, 4.28291768e-01,
          4.28291768e-01, 4.28291768e-01, 2.57280350e-01, 4.98753130e-01,
          4.98753130e-01, 4.98753130e-01, 0., 0., 0., 0., 0.,
          4.98753130e-01, 4.30163711e-01, 4.30163711e-01, 4.30163711e-01,
          4.30163711e-01, 4.30163711e-01, 1.75540805e-01, 0.,
          3.42160667e-04, 1.99208647e-01, 4.82794493e-01, 4.82794493e-01,
          1.89493194e-01, 1.46926984e-01, 4.82794493e-01, 4.82794493e-01,
          3.30492854e-02, 7.48424209e-04, 6.50224090e-02, 3.76320541e-01,
          3.76320541e-01, 3.76320541e-01, 3.40461284e-01, 3.76320541e-01,
          3.76320541e-01, 3.76320541e-01, 1.44333348e-01, 9.89516973e-02,
          1.33634090e-01, 2.81107966e-02, 1.22077959e-02, 2.10317038e-02,
          5.60164154e-01, 5.60164154e-01, 5.60164154e-01, 1.74985573e-01,
          5.65234609e-02, 6.50528492e-03, 7.35057332e-03, 0., 0.,
          6.63479984e-01, 6.63479984e-01, 3.28752697e-01, 6.92103207e-02,
          0., 5.91602445e-01, 5.91602445e-01, 3.56943458e-01,
          1.94745764e-01, 1.59795478e-01, 2.77780175e-01, 8.39726627e-03,
          0., 1.61259010e-01, 4.84837592e-01, 4.84837592e-01,
          2.51079490e-03, 2.21865326e-02, 4.84837592e-01, 4.84837592e-01,
          5.75912893e-02, 6.94211572e-04, 2.25990787e-01, 5.09577751e-01,
          3.91455531e-01, 2.04466097e-02, 1.45646418e-02, 5.09577751e-01,
          5.09577751e-01, 2.40678027e-01, 1.44583154e-02, 6.24472313e-02,
          5.84916100e-02, 9.80451331e-02, 3.04250956e-01, 3.92390639e-01,
          5.35009146e-01, 5.35009146e-01, 4.02798921e-01, 1.91646498e-02,
          0., 0., 0., 4.75484543e-02, 1.14911191e-01, 5.57382345e-01,
          5.57382345e-01, 5.57382345e-01, 2.16664091e-01, 0., 0., 0., 0.,
          0., 0., 0., 0., 0., 0., 3.29445004e-01, 4.21248347e-01,
          4.21248347e-01, 4.21248347e-01, 4.21248347e-01, 4.21248347e-01,
          1.92606007e-03, 0., 1.85815257e-03, 1.83958352e-01,
          1.70635507e-01, 9.82802641e-03, 7.76088238e-02, 6.78289294e-01,
          6.78289294e-01, 6.21051118e-02, 0., 1.19177876e-02,
          9.31516290e-03, 4.25055186e-04, 0., 3.90559970e-03,
          6.82845414e-01, 6.82845414e-01, 2.43591622e-01, 3.44760716e-02,
          0., 0., 0., 0., 0., 9.28090751e-01, 3.39316130e-01,
          1.15741827e-01, 2.92672440e-02, 0., 0., 0., 0., 0.,
          9.73472238e-01, 0., 0., 0., 0., 0., 0., 0., 0., 0., 0., 0., 0.,
          0. ]
      - [ 0., 0., 0., 0., 0., 0., 0., 0., 0., 0., 0., 0., 0., 0., 0., 0.,
          0., 0., 0., 0., 0., 0., 0., 0., 0., 0., 0., 5.58768153e-01,
          5.58768153e-01, 5.58768153e-01, 0., 0., 0., 0., 0.,
          2.40322128e-01, 4.84079361e-01, 4.84079361e-01, 2.39809349e-01,
          0., 0., 0., 1.80291571e-02, 4.84079361e-01, 4.84079361e-01,
          5.30910015e-01, 4.01488069e-04, 0., 0., 0., 0., 3.05501878e-01,
          5.56437910e-01, 5.56437910e-01, 5.44097841e-01, 5.44097841e-01,
          1.29580721e-01, 0., 0., 0., 0., 2.99412400e-01, 5.44097841e-01,
          5.47725737e-01, 3.00221562e-01, 6.62327781e-02, 0., 0., 0., 0.,
          5.47725737e-01, 5.47725737e-01, 5.02301812e-01, 5.02301812e-01,
          2.18290046e-01, 0., 0., 0., 0., 4.36361641e-01, 5.02301812e-01,
          3.05454135e-01, 4.24841970e-01, 4.24841970e-01, 4.24841970e-01,
          4.86004807e-04, 0., 0., 4.24841970e-01, 4.24841970e-01,
          3.99451882e-01, 4.03685629e-01, 4.03685629e-01, 4.03685629e-01,
          8.40481650e-03, 0., 1.46711797e-01, 4.03685629e-01,
          4.03685629e-01, 4.75255102e-02, 1.89791992e-02, 1.83375761e-01,
          8.03848058e-02, 1.09234452e-03, 0., 5.63224971e-01,
          5.63224971e-01, 5.63224971e-01, 3.61063629e-01, 5.56298912e-01,
          5.56298912e-01, 2.52739526e-02, 3.48196295e-03, 0.,
          8.50696210e-03, 1.61226600e-01, 4.67358112e-01, 3.99358332e-01,
          4.80912358e-01, 1.21051118e-01, 1.93443464e-03, 1.48691460e-02,
          0., 4.69321609e-02, 5.41639388e-01, 5.41639388e-01,
          4.76177782e-01, 4.76177782e-01, 2.37040058e-01, 0., 0., 0.,
          1.79094344e-01, 4.76177782e-01, 4.76177782e-01, 3.10857683e-01,
          2.84969598e-01, 9.46093872e-02, 3.34073044e-02, 4.66592428e-05,
          0., 5.18624246e-01, 5.18624246e-01, 5.18624246e-01,
          3.68766844e-01, 5.34231246e-01, 5.34231246e-01, 3.66003633e-01,
          1.84960850e-02, 9.65701193e-02, 2.81279236e-01, 2.53822803e-01,
          2.64448933e-02, 2.88300263e-03, 2.26398677e-01, 2.61229962e-01,
          2.54242849e-02, 2.00911928e-02, 3.05326611e-01, 6.24076903e-01,
          6.24076903e-01, 3.23249400e-02, 3.57888895e-03, 4.79573190e-01,
          5.91801822e-01, 5.91801822e-01, 2.51613259e-01, 1.19133815e-02,
          1.06048435e-02, 3.64507711e-03, 7.20154867e-03, 2.21821621e-01,
          9.70569253e-02, 2.88632452e-01, 5.31142950e-01, 5.31142950e-01,
          3.34071606e-01, 5.38383350e-02, 1.97817966e-01, 3.67290139e-01,
          2.70966113e-01, 2.48414084e-01, 5.59694245e-02, 4.43855703e-01,
          5.40598869e-01, 2.50531703e-01, 3.28064978e-01, 3.52505058e-01,
          2.69126028e-01, 3.99181664e-01, 3.12350810e-01, 5.69113111e-03,
          1.93174779e-01, 3.99181664e-01, 2.53713220e-01, 3.99181664e-01,
          3.99181664e-01, 3.99181664e-01, 4.76515353e-01, 4.76515353e-01,
          6.92493618e-02, 5.45233302e-03, 4.76515353e-01, 4.76515353e-01,
          2.73033381e-01, 2.87998524e-02, 8.22864771e-02, 6.01252681e-03,
          6.39976934e-02, 2.71240529e-02, 0., 4.78576660e-01,
          5.68233192e-01, 5.68233192e-01, 3.38591218e-01, 8.18427477e-04,
          0., 5.06507903e-02, 4.12916094e-01, 6.39190793e-01,
          6.39190793e-01, 5.85103482e-02, 0., 0., 0., 0., 0.,
          2.78720353e-02, 6.43496692e-01, 6.43496692e-01, 4.05737162e-01,
          0., 0., 0., 0., 0., 0., 5.92194676e-01, 7.42505431e-01,
          3.00919920e-01, 6.84385828e-04, 3.08249192e-03, 4.15195897e-03,
          8.73151049e-02, 0., 0., 5.72381854e-01, 5.72381854e-01,
          5.72381854e-01, 6.19841623e-04, 1.01167941e-02, 6.07847869e-02,
          4.01406735e-02, 0., 0., 5.67774214e-02, 6.99226499e-01,
          6.99226499e-01, 1.00077786e-01, 7.67758861e-03, 1.65853258e-02,
          0., 0., 0., 0., 6.47430360e-01, 6.47430360e-01, 3.87053907e-01,
          7.34398067e-02, 0., 0., 0., 0., 0., 0., 0., 0., 0., 0., 0., 0.,
          0., 0., 0., 0., 0., 0., 0., 0., 0., 0., 0., 0., 0., 0., 0., 0.,
          0., 0., 0., 0., 9.95024860e-01, 0., 0., 0., 0., 0., 0., 0., 0.,
          9.91702914e-01, 0., 0., 0., 0., 0., 0., 0., 0., 0., 0., 0., 0.,
          0. ]
      - [ 0., 0., 0., 0., 0., 0., 0., 0., 0., 0., 0., 0., 0., 0., 0., 0.,
          0., 0., 0., 0., 0., 0., 0., 0., 0., 0., 0., 5.38140774e-01,
          5.38140774e-01, 2.88429558e-01, 2.58200988e-02, 4.07204106e-02,
          0., 0., 2.00805426e-01, 5.38140774e-01, 5.43846190e-01,
          2.95437485e-01, 1.69544555e-02, 2.20897291e-02, 3.48373093e-02,
          0., 1.34128645e-01, 5.43846190e-01, 5.43846190e-01, 0., 0., 0.,
          0., 0., 0., 6.23834312e-01, 6.28162324e-01, 4.58226025e-01, 0.,
          0., 0., 0., 0., 0., 0., 0., 0., 0., 3.12541306e-01,
          9.37624037e-01, 0., 0., 0., 0., 0., 0., 5.30622423e-01,
          5.30622423e-01, 3.81584764e-01, 0., 0., 0., 0., 6.64332956e-02,
          5.30622423e-01, 3.98138493e-01, 3.98138493e-01, 3.98138493e-01,
          3.98138493e-01, 3.98138493e-01, 6.60195798e-02, 0.,
          2.17566267e-01, 3.89560938e-01, 2.13125557e-01, 3.71681213e-01,
          4.09426063e-01, 1.72608212e-01, 3.48356098e-01, 1.63066704e-02,
          4.09426063e-01, 4.09426063e-01, 3.97542417e-01, 0., 0., 0., 0.,
          0., 0., 6.94808185e-01, 6.94808185e-01, 1.65973783e-01, 0., 0.,
          0., 0., 0., 0., 0., 0., 0., 5.61495185e-01, 5.61495185e-01,
          5.61495185e-01, 0., 0., 0., 2.39579398e-02, 8.72301683e-03,
          2.18889177e-01, 4.24035370e-01, 4.24035370e-01, 4.24035370e-01,
          1.83768943e-01, 3.47945839e-01, 4.00421530e-01, 1.88136756e-01,
          5.86750545e-02, 3.19895625e-01, 3.69228572e-01, 3.69228572e-01,
          2.88494885e-01, 3.69228572e-01, 3.69228572e-01, 2.99524993e-01,
          7.34046400e-02, 3.69228572e-01, 3.69228572e-01, 2.75754005e-01,
          4.19474751e-01, 4.19474751e-01, 5.13267852e-02, 1.46857396e-01,
          4.19474751e-01, 4.19474751e-01, 4.19342637e-01, 1.26029491e-01,
          0., 0., 0., 0., 6.83843205e-03, 4.54892397e-01, 6.27201736e-01,
          6.27201736e-01, 0., 0., 7.04615593e-01, 7.04615593e-01, 0., 0.,
          0., 0., 0., 0., 5.12619913e-01, 5.12619913e-01, 5.12619913e-01,
          0., 0., 2.42374703e-01, 3.80923688e-01, 1.66164543e-02,
          4.91765067e-02, 4.50313836e-01, 4.80125040e-01, 2.04044998e-01,
          1.90816000e-01, 1.23713292e-01, 4.80125040e-01, 4.80125040e-01,
          5.55377640e-02, 6.65370971e-02, 1.37390807e-01, 2.25689895e-02,
          9.48819220e-02, 5.51104724e-01, 5.51104724e-01, 5.51104724e-01,
          1.92689389e-01, 5.76599874e-02, 1.20437093e-01, 8.62014592e-02,
          3.14974412e-02, 6.80823065e-03, 1.07111029e-01, 6.12586677e-01,
          6.12586677e-01, 4.64051008e-01, 6.26377463e-02, 6.44210130e-02,
          0., 0., 0., 0., 1.90227538e-01, 6.54262245e-01, 6.54262245e-01,
          3.18061888e-01, 0., 0., 7.04615593e-01, 7.04615593e-01, 0., 0.,
          0., 0., 0., 0., 6.49502873e-02, 5.38580596e-01, 5.38580596e-01,
          0., 0., 3.35604101e-01, 5.38580596e-01, 8.69572014e-02,
          2.06790050e-03, 1.87038481e-02, 2.50088304e-01, 9.01739672e-02,
          0., 0., 6.46816909e-01, 6.46816909e-01, 2.92821348e-01,
          5.34155499e-03, 0., 0., 0., 0., 9.32194352e-01, 2.76548892e-01,
          2.10634708e-01, 2.94484217e-02, 0., 0., 0., 0., 0.,
          9.95024860e-01, 0., 0., 0., 0., 0., 0., 0., 0., 0., 0., 0., 0.,
          0., 0., 6.40937746e-01, 6.40937746e-01, 3.87380183e-01,
          1.48105159e-01, 0., 0., 0., 0., 0., 4.36402529e-01,
          4.36402529e-01, 3.44643563e-01, 3.21893394e-01, 4.36402529e-01,
          4.36402529e-01, 1.07040137e-01, 0., 0., 1.70720592e-02,
          2.46348884e-02, 0., 8.37990865e-02, 6.66378260e-01,
          6.66378260e-01, 3.11940193e-01, 0., 0., 0., 0., 0., 0., 0., 0.,
          0., 0., 0., 0., 0., 0., 0., 0., 0., 0., 0., 0., 0., 0., 0., 0.,
          0., 0., 0., 0. ]
      - [ 5.26065648e-01, 5.52562416e-01, 5.52562416e-01, 0., 0.,
          6.93215174e-04, 1.50309056e-01, 5.91752902e-02, 2.84589767e-01,
          4.07368153e-01, 4.38069105e-01, 2.47500271e-01, 0., 0.,
          2.82963309e-02, 4.38069105e-01, 4.38069105e-01, 4.38069105e-01,
          5.39490394e-02, 0., 0., 0., 0., 3.08367722e-02, 7.02161312e-01,
          7.02161312e-01, 5.53920008e-02, 5.34670889e-01, 8.37614477e-01,
          0., 0., 0., 0., 0., 0., 0., 5.72684228e-01, 5.72684228e-01, 0.,
          0., 0., 0., 0., 1.01881079e-01, 5.72684228e-01, 5.74030042e-01,
          5.44901453e-02, 0., 0., 0., 0., 5.26049286e-02, 5.74030042e-01,
          5.74030042e-01, 1.26172218e-03, 6.49273336e-01, 6.49273336e-01,
          1.34561099e-02, 0., 2.43323599e-03, 3.80637497e-01,
          7.30255172e-02, 0., 1.87359378e-02, 2.81495929e-01,
          5.02726495e-01, 3.27217369e-03, 0., 2.39124790e-01,
          6.03492856e-01, 4.90157425e-01, 0., 4.50939566e-01,
          4.50939566e-01, 2.35479195e-02, 0., 0., 5.11482731e-02,
          4.50939566e-01, 4.23011899e-01, 4.50939566e-01, 4.08890694e-01,
          4.08890694e-01, 4.08890694e-01, 6.32523820e-02, 1.15079239e-01,
          0., 3.77774268e-01, 4.08890694e-01, 4.08890694e-01,
          4.00092363e-01, 4.00092363e-01, 4.00092363e-01, 4.00092363e-01,
          4.00092363e-01, 4.38017733e-02, 1.35997580e-02, 1.82909787e-01,
          4.00092363e-01, 3.18601996e-01, 6.14674613e-02, 1.47188291e-01,
          9.24875289e-02, 8.71440843e-02, 4.43489337e-03, 5.32779396e-01,
          5.32779396e-01, 5.32779396e-01, 0., 6.50527179e-01,
          6.50527179e-01, 1.22175895e-01, 0., 0., 3.39621544e-01,
          1.29845932e-01, 2.09341804e-03, 3.51426274e-01, 4.54531282e-01,
          4.54531282e-01, 2.52340566e-02, 5.29981218e-03, 7.76702631e-03,
          4.54531282e-01, 4.54531282e-01, 2.11753592e-01, 4.85878438e-01,
          4.85878438e-01, 1.35759994e-01, 3.46372090e-03, 7.74827302e-02,
          2.26573925e-03, 3.86594385e-01, 4.85878438e-01, 3.36164862e-01,
          1.37529284e-01, 1.20648980e-01, 1.51891902e-01, 2.81633940e-02,
          1.13683358e-01, 0., 6.53303862e-01, 6.53303862e-01,
          2.63831228e-01, 1.16084285e-01, 4.91601676e-01, 4.91601676e-01,
          4.91601676e-01, 4.91601676e-01, 7.35180005e-02, 7.83723369e-02,
          5.68590127e-02, 1.20684756e-02, 2.04254165e-02, 2.87511647e-01,
          5.46170652e-01, 1.21242456e-01, 3.49322818e-02, 6.12400519e-03,
          5.46170652e-01, 5.46170652e-01, 2.45101489e-02, 0.,
          3.89393181e-01, 6.41899586e-01, 6.41899586e-01, 9.77303833e-02,
          0., 6.77806288e-02, 5.97753599e-02, 1.32452333e-02,
          3.52926940e-01, 3.52926940e-01, 3.52926940e-01, 3.52926940e-01,
          3.52926940e-01, 3.52926940e-01, 2.73982227e-01, 2.22498849e-01,
          3.52926940e-01, 1.58746406e-01, 3.24754745e-01, 4.31593329e-01,
          4.31593329e-01, 4.31593329e-01, 4.31593329e-01, 2.02065215e-01,
          2.75021195e-01, 5.88598661e-02, 2.08902955e-01, 8.05954933e-02,
          2.57753521e-01, 1.15241870e-01, 3.16734053e-02, 0.,
          5.36589384e-01, 5.36589384e-01, 5.36589384e-01, 5.54624975e-01,
          5.54624975e-01, 4.33778018e-01, 1.63349230e-03, 0.,
          8.58995542e-02, 2.01857045e-01, 2.40177795e-01, 2.92005867e-01,
          5.85607104e-02, 4.58778948e-01, 1.91481009e-01, 4.59387491e-04,
          0., 5.57848155e-01, 5.57848155e-01, 3.48521918e-01,
          4.90592720e-05, 0., 2.88952529e-01, 5.51060617e-01,
          5.51060617e-01, 5.51060617e-01, 0., 0., 0., 0., 2.52180710e-03,
          2.31720507e-02, 1.96287334e-01, 5.63710868e-01, 5.63710868e-01,
          5.63710868e-01, 4.45262752e-02, 0., 2.52180710e-03,
          1.55679794e-04, 1.20215431e-01, 5.44562161e-01, 5.44562161e-01,
          3.47751677e-01, 5.14974594e-01, 2.90079769e-02, 6.53739274e-03,
          1.55679794e-04, 2.39083663e-01, 4.44761589e-02, 4.54026669e-01,
          4.54026669e-01, 4.54026669e-01, 1.18060000e-01, 3.93582806e-02,
          3.24140012e-01, 4.44242120e-01, 5.02994716e-01, 2.85119534e-01,
          2.50357743e-02, 2.72383448e-02, 5.02994716e-01, 5.02994716e-01,
          2.79855549e-01, 4.80246507e-02, 2.69588858e-01, 1.41681321e-02,
          3.89167108e-02, 1.11549217e-02, 0., 8.02078992e-02,
          6.95834160e-01, 6.95834160e-01, 1.28103271e-01, 1.06972584e-04,
          0., 0., 0., 0., 0., 0., 0., 0., 0., 0., 0., 0., 0., 0., 0., 0.,
          0., 0., 0., 9.70793515e-02, 6.17035091e-01, 6.17035091e-01,
          4.72176015e-01, 0., 0., 0., 0., 0., 4.85435640e-03,
          9.99886096e-02, 6.78668261e-01, 6.78668261e-01, 2.49042884e-01,
          0., 0., 0., 0., 0., 0., 6.78828731e-02, 7.01977968e-01,
          7.01977968e-01, 5.32757789e-02, 0., 0., 0., 0., 0., 0.,
          6.72995687e-01, 6.72995687e-01, 2.95694351e-01, 0., 0. ]
      - [ 0., 0., 0., 0., 0., 0., 0., 0., 0., 6.99730575e-01, 0., 0., 0.,
          0., 0., 0., 0., 6.99730575e-01, 6.33152187e-01, 4.38081056e-01,
          0., 0., 0., 0., 0., 0., 6.33152187e-01, 6.93578780e-01,
          1.75991997e-01, 0., 0., 0., 0., 0., 0., 6.93578780e-01,
          6.76395059e-01, 0., 0., 0., 0., 0., 0., 2.79691070e-01,
          6.76395059e-01, 2.72154242e-01, 0., 0., 0., 0., 0., 0.,
          6.20822906e-01, 7.30220616e-01, 5.75688422e-01, 5.75688422e-01,
          0., 0., 0., 0., 0., 0., 5.75688422e-01, 6.89186811e-01,
          6.89186811e-01, 3.02836280e-02, 2.26131571e-03, 4.80584279e-02,
          0., 0., 0., 1.99828014e-01, 7.29958475e-01, 5.31816423e-01,
          3.93185206e-03, 1.32805260e-03, 1.48391217e-01, 2.36081481e-01,
          3.24870795e-02, 0., 3.13398570e-01, 4.71904188e-01,
          2.98922360e-01, 4.23866436e-02, 9.65214670e-02, 4.71904188e-01,
          4.71904188e-01, 6.35975823e-02, 0., 4.71904188e-01,
          4.36310053e-01, 7.86239803e-02, 2.61387527e-01, 2.12196872e-01,
          3.35667431e-01, 4.43903618e-02, 4.36310053e-01, 4.36310053e-01,
          4.36310053e-01, 2.16446333e-02, 1.38014881e-02, 4.18093465e-02,
          0., 0., 0., 5.74993134e-01, 5.74993134e-01, 5.74993134e-01,
          6.85236752e-01, 6.85236752e-01, 1.38763472e-01, 0.,
          3.99531797e-02, 1.09421156e-01, 4.25590016e-02, 1.69858336e-02,
          1.38334170e-01, 4.95125830e-01, 4.95125830e-01, 5.13506122e-02,
          3.18926806e-03, 4.51948285e-01, 4.95125830e-01, 1.99323744e-01,
          4.03714366e-02, 1.06498867e-01, 4.93117392e-01, 4.93117392e-01,
          1.04412377e-01, 4.35142871e-03, 4.93117392e-01, 4.93117392e-01,
          8.49520043e-02, 0., 6.54073358e-02, 4.75037247e-01,
          4.75037247e-01, 1.22139402e-01, 8.22445080e-02, 4.75037247e-01,
          4.75037247e-01, 2.17540249e-01, 0., 1.53648481e-01,
          4.24305260e-01, 3.30411881e-01, 4.24305260e-01, 1.59576505e-01,
          2.14694783e-01, 2.31052041e-01, 4.24305260e-01, 4.24305260e-01,
          2.03730449e-01, 0., 1.80375148e-02, 5.53048477e-02, 0., 0.,
          1.54700354e-01, 6.94819212e-01, 6.94819212e-01, 1.41517194e-02,
          4.95142519e-01, 4.95142519e-01, 2.16444969e-01, 1.15928546e-01,
          3.63236934e-01, 4.95142519e-01, 2.59456635e-01, 2.58773961e-03,
          1.72106177e-03, 1.76961169e-01, 3.52226973e-01, 2.86899745e-01,
          1.85515974e-02, 2.37208545e-01, 5.91386199e-01, 5.91386199e-01,
          1.67313889e-02, 6.10159105e-03, 4.61718708e-01, 4.61718708e-01,
          4.61718708e-01, 6.19655848e-02, 1.97565824e-01, 4.61718708e-01,
          3.15317512e-01, 1.55530674e-02, 1.06100459e-02, 4.63999420e-01,
          4.63999420e-01, 2.83998191e-01, 7.85295591e-02, 2.14844555e-01,
          4.63999420e-01, 4.63999420e-01, 2.83299610e-02, 2.00213883e-02,
          1.51041508e-01, 3.06619942e-01, 3.61768186e-01, 4.77937385e-02,
          2.62391537e-01, 5.77886462e-01, 5.77886462e-01, 8.56299996e-02,
          1.23486919e-02, 0., 1.21402678e-04, 3.64208012e-04, 0.,
          2.11224332e-02, 6.33854747e-01, 6.33854747e-01, 4.35524374e-01,
          0., 2.44164001e-02, 3.08326185e-01, 1.94048539e-01,
          3.97059500e-01, 5.82278192e-01, 5.82278192e-01, 1.58485457e-01,
          0., 0., 4.64405492e-02, 4.90960032e-01, 4.90960032e-01,
          4.90960032e-01, 1.36827603e-01, 4.90960032e-01, 1.00254714e-01,
          0., 0., 2.05436155e-01, 4.77918297e-01, 4.77918297e-01,
          4.77918297e-01, 2.62478620e-01, 2.89285630e-01, 3.17115366e-01,
          5.75363748e-02, 1.06542215e-01, 4.54435408e-01, 4.13522035e-01,
          3.49552669e-02, 1.41065866e-01, 2.80477166e-01, 5.03422678e-01,
          5.03422678e-01, 2.00991239e-02, 1.01972997e-01, 9.16614980e-02,
          1.05167829e-01, 3.31995301e-02, 0., 3.87911499e-01,
          6.39641821e-01, 6.39641821e-01, 6.55056089e-02, 0., 0., 0., 0.,
          0., 9.82174277e-02, 9.11427140e-01, 3.88021171e-01, 0., 0., 0.,
          0., 0., 0., 0., 0., 0., 0., 0., 0., 1.70640737e-01,
          7.83751786e-01, 5.90586901e-01, 0., 0., 0., 0., 0.,
          1.26826838e-02, 3.47399190e-02, 3.76567572e-01, 5.44090927e-01,
          5.44090927e-01, 5.08695185e-01, 1.50330709e-02, 0.,
          1.81380063e-02, 1.79247987e-02, 0., 2.58434657e-02,
          3.81928086e-01, 6.29670501e-01, 6.29670501e-01, 2.30711982e-01,
          0., 2.56349612e-02, 0., 0., 0., 0., 3.74728322e-01,
          8.65413308e-01, 3.19379151e-01, 0., 0., 0., 0., 0., 0., 0., 0.,
          0., 0., 0. ]
      - [ 0., 0., 0., 0., 0., 0., 0., 0., 0., 0., 0., 0., 0., 0., 0., 0.,
          0., 0., 0., 0., 0., 0., 0., 0., 0., 0., 0., 0., 0., 0., 0., 0.,
          0., 0., 0., 0., 0., 0., 0., 0., 0., 0., 0., 0., 0., 0., 0., 0.,
          0., 0., 0., 0., 0., 0., 6.99454069e-01, 3.81386392e-02,
          1.14415921e-01, 0., 0., 0., 0., 0., 6.99454069e-01,
          7.04602599e-01, 1.92041206e-03, 5.76123642e-03, 0., 0., 0., 0.,
          0., 7.04602599e-01, 7.04615593e-01, 0., 0., 0., 0., 0., 0., 0.,
          7.04615593e-01, 7.04615593e-01, 0., 0., 0., 0., 0., 0., 0.,
          7.04615593e-01, 7.04615593e-01, 0., 0., 0., 0., 0., 0., 0.,
          7.04615593e-01, 7.01296210e-01, 0., 0., 0., 0., 0., 0., 0.,
          7.01296210e-01, 4.13481772e-01, 4.13481772e-01, 4.13481772e-01,
          4.13481772e-01, 3.75536978e-01, 0., 0., 2.35827989e-03,
          4.13481772e-01, 5.05914330e-01, 1.07274130e-01, 1.02943912e-01,
          4.40464973e-01, 5.05914330e-01, 0., 0., 1.04808979e-01,
          5.05914330e-01, 5.73699951e-01, 0., 0., 8.22772682e-02,
          5.73699951e-01, 4.46584262e-03, 0., 9.31427628e-03,
          5.73699951e-01, 5.73526323e-01, 0., 0., 1.17181940e-02,
          5.73526323e-01, 8.56643096e-02, 0., 0., 5.73526323e-01,
          5.71378648e-01, 0., 0., 1.18191704e-01, 5.71378648e-01,
          1.49212601e-02, 0., 2.61130296e-02, 5.71378648e-01,
          4.75613207e-01, 0., 0., 3.72372605e-02, 2.23417982e-01,
          1.97776541e-01, 4.75613207e-01, 4.75613207e-01, 4.75613207e-01,
          9.52885076e-02, 3.57573718e-01, 5.33605516e-01, 5.33605516e-01,
          5.33605516e-01, 0., 0., 5.29045356e-04, 5.93907945e-02,
          1.58326447e-01, 2.03980468e-02, 5.22403643e-02, 6.62544429e-01,
          6.62544429e-01, 0., 0., 1.48300203e-02, 2.94996589e-01,
          2.99582630e-01, 0., 0., 3.41543704e-01, 8.29255104e-01,
          2.42668856e-02, 0., 9.07149224e-04, 3.11559141e-01,
          3.04932028e-01, 0., 0., 6.36491477e-02, 7.65189826e-01,
          4.65298682e-01, 0., 0., 3.05466473e-01, 2.09150463e-01, 0., 0.,
          5.88571727e-01, 6.69082582e-01, 7.43049905e-02, 0.,
          1.32996617e-02, 3.87027442e-01, 6.91495761e-02, 0., 0.,
          1.37897775e-01, 4.62796122e-01, 4.62796122e-01, 4.62796122e-01,
          4.62796122e-01, 3.38908583e-01, 0., 0., 0., 0., 0., 0., 0., 0.,
          0., 0., 0., 0., 0., 9.95024860e-01, 0., 0., 0., 0., 0., 0., 0.,
          0., 9.95024860e-01, 0., 0., 0., 0., 0., 0., 0., 0.,
          9.95024860e-01, 0., 0., 0., 0., 0., 0., 0., 0., 9.95024860e-01,
          0., 0., 0., 0., 0., 0., 0., 0., 9.95024860e-01, 0., 0., 0., 0.,
          0., 0., 0., 0., 0., 0., 0., 0., 0., 0., 0., 0., 0., 0., 0., 0.,
          0., 0., 0., 0., 0., 0., 0., 0., 0., 0., 0., 0., 0., 0., 0., 0.,
          0., 0., 0., 0., 0., 0., 0., 0., 0., 0., 0., 0., 0., 0., 0., 0.,
          0., 0., 0., 0., 0., 0. ]
      - [ 0., 0., 0., 0., 0., 0., 0., 0., 0., 6.21504962e-01,
          6.21504962e-01, 0., 0., 0., 0., 0., 0., 4.70380485e-01,
          5.43308437e-01, 5.43308437e-01, 0., 0., 0., 0., 1.24215342e-01,
          3.05929184e-01, 5.43308437e-01, 4.96995777e-01, 8.37667882e-02,
          0., 0., 0., 0., 4.96995777e-01, 4.96995777e-01, 4.96995777e-01,
          0., 0., 0., 0., 0., 0., 0., 0., 0., 7.04615593e-01, 0., 0., 0.,
          0., 0., 0., 0., 7.04615593e-01, 0., 0., 0., 0., 0., 0., 0., 0.,
          0., 5.74945033e-01, 5.74945033e-01, 5.74945033e-01, 0., 0.,
          1.13920020e-02, 1.15748830e-02, 0., 4.80598062e-02,
          4.45257902e-01, 4.45257902e-01, 1.02828950e-01, 0., 0.,
          4.45257902e-01, 4.45257902e-01, 2.84407645e-01, 3.33275437e-01,
          2.10869133e-01, 9.54278037e-02, 0., 0., 0., 5.35173237e-01,
          5.35173237e-01, 5.35173237e-01, 2.86098123e-01, 6.72283173e-01,
          6.72283173e-01, 0., 0., 4.39633010e-03, 2.08093878e-02, 0., 0.,
          2.98172534e-01, 4.85493869e-01, 4.85493869e-01, 0., 0.,
          2.51475610e-02, 4.85493869e-01, 1.45565361e-01, 1.74676910e-01,
          4.85493869e-01, 2.84208834e-01, 6.75456226e-01, 6.75456226e-01,
          0., 0., 0., 0., 0., 0., 1.48116261e-01, 5.81443071e-01,
          5.81443071e-01, 0., 0., 3.87973607e-01, 3.79064023e-01,
          4.34787944e-02, 0., 1.88680097e-01, 4.45234954e-01,
          2.44534463e-01, 0., 0., 5.87538600e-01, 5.87538600e-01,
          9.06562135e-02, 4.33604792e-02, 5.42612255e-01, 5.42612255e-01,
          3.62883252e-03, 0., 6.57344889e-03, 5.22833407e-01,
          2.48029083e-01, 2.60990374e-02, 2.64791310e-01, 5.38605273e-01,
          5.38605273e-01, 1.51968654e-02, 0., 2.93409109e-01,
          5.38605273e-01, 1.76391408e-01, 1.52343232e-03, 8.30555335e-02,
          4.87321854e-01, 2.71437436e-01, 1.25982508e-03, 0.,
          5.37761986e-01, 6.04058087e-01, 1.59777299e-01, 2.48168744e-02,
          5.08655272e-02, 1.23003893e-01, 6.99245930e-01, 6.99245930e-01,
          0., 0., 0., 0., 0., 0., 2.43715584e-01, 4.86311972e-01,
          4.86311972e-01, 0., 1.31949643e-03, 1.83841109e-01,
          4.86311972e-01, 3.98055404e-01, 1.84391186e-01, 4.16941017e-01,
          4.16941017e-01, 1.01986788e-01, 3.40257934e-03, 4.88457195e-02,
          4.16941017e-01, 4.16941017e-01, 3.37397516e-01, 4.16941017e-01,
          4.93896216e-01, 4.93896216e-01, 1.09799895e-02, 5.45886997e-03,
          4.93896216e-01, 4.93896216e-01, 1.12694390e-01, 9.93533875e-04,
          8.05108249e-02, 2.24844754e-01, 9.59830806e-02, 2.09532864e-03,
          1.36903720e-04, 4.18439090e-01, 6.43273711e-01, 5.86523652e-01,
          8.92828777e-03, 2.86953077e-02, 0., 9.47507843e-03,
          8.32565769e-04, 0., 6.63314700e-01, 6.63314700e-01,
          3.36143523e-01, 1.79533735e-02, 0., 0., 5.75688422e-01,
          5.75688422e-01, 5.75688422e-01, 0., 0., 0., 0., 0.,
          7.13614523e-02, 4.59805071e-01, 4.59805071e-01, 4.59805071e-01,
          4.59805071e-01, 3.64151031e-01, 6.88303784e-02, 3.94260325e-02,
          7.57221803e-02, 4.06078458e-01, 6.26904443e-02, 7.01196166e-03,
          4.76895683e-02, 5.98681033e-01, 5.98681033e-01, 2.75596231e-01,
          2.97106542e-02, 1.70864910e-01, 5.06142080e-02, 3.90575528e-02,
          0., 2.93820794e-03, 6.51205003e-01, 6.51205003e-01,
          3.75786573e-01, 0., 7.15849129e-03, 0., 0., 0., 1.49136933e-04,
          6.93723857e-01, 6.93723857e-01, 1.74840868e-01, 0., 0., 0., 0.,
          0., 0., 0., 2.83202171e-01, 9.12337899e-01, 0., 0., 0.,
          1.97145686e-01, 6.90738082e-01, 6.90738082e-01, 0., 0., 0., 0.,
          0., 0., 2.03316435e-02, 2.20194325e-01, 6.28934383e-01,
          6.28934383e-01, 3.91985625e-01, 7.21645402e-03, 0., 0., 0., 0.,
          7.49251666e-03, 7.70159587e-02, 7.00039923e-01, 7.00039923e-01,
          8.31409618e-02, 0., 0., 0., 0., 0., 0., 6.65986478e-01,
          6.65986478e-01, 3.25999051e-01, 0., 0., 0., 0., 0., 0., 0., 0.,
          0., 0., 0., 0., 0., 0., 0., 0., 0., 0., 0., 0. ]
      - [ 0., 0., 0., 0., 0., 0., 0., 0., 0., 7.04615593e-01, 0., 0., 0.,
          0., 0., 0., 0., 7.04615593e-01, 7.04615593e-01, 0., 0., 0., 0.,
          0., 0., 0., 7.04615593e-01, 5.45087218e-01, 5.45087218e-01,
          3.18041056e-01, 0., 4.29035760e-02, 1.43392952e-02, 0., 0.,
          5.45087218e-01, 5.31609893e-01, 3.06368679e-01, 9.61838756e-03,
          1.78758856e-02, 2.22468078e-01, 4.58693281e-02, 3.15287858e-02,
          5.31609893e-01, 5.31609893e-01, 5.23893416e-01, 0., 0.,
          6.28385507e-03, 5.27556166e-02, 2.92074922e-02, 4.09511119e-01,
          5.23893416e-01, 5.23893416e-01, 6.09502137e-01, 6.09502137e-01,
          4.73508030e-01, 0., 2.66827475e-02, 7.05257803e-02,
          3.89205180e-02, 0., 1.39707312e-01, 4.29682106e-01,
          4.29682106e-01, 2.46730950e-02, 0., 1.90302327e-01,
          4.29682106e-01, 4.29682106e-01, 1.89077377e-01, 4.29682106e-01,
          3.97278190e-01, 1.20284013e-01, 2.45969430e-01, 0.,
          8.55033845e-02, 4.06332612e-01, 4.43603724e-01, 4.43603724e-01,
          4.43603724e-01, 3.08368176e-01, 5.40210783e-01, 5.40210783e-01,
          0., 3.98343019e-02, 2.40400583e-01, 5.02518892e-01,
          1.59701072e-02, 6.08235113e-02, 3.45003724e-01, 3.45003724e-01,
          3.45003724e-01, 2.10552499e-01, 3.45003724e-01, 3.45003724e-01,
          3.45003724e-01, 3.45003724e-01, 3.45003724e-01, 4.23524193e-02,
          5.57887219e-02, 4.67796087e-01, 5.02733737e-02, 7.84363076e-02,
          3.36925052e-02, 5.61481893e-01, 5.61481893e-01, 3.60991925e-01,
          2.59556025e-01, 5.34354389e-01, 5.34354389e-01, 0.,
          8.66143126e-03, 2.19254360e-01, 5.34354389e-01, 1.49376273e-01,
          1.51517205e-02, 2.87798911e-01, 4.41057742e-01, 1.99962050e-01,
          0., 3.34257782e-01, 4.41057742e-01, 4.41057742e-01,
          3.84860516e-01, 1.71287715e-01, 2.30836734e-01, 4.23835278e-01,
          4.23835278e-01, 0., 3.82053524e-01, 4.23835278e-01,
          4.23835278e-01, 1.48247033e-01, 2.36628413e-01, 9.17991623e-02,
          5.57418048e-01, 5.57418048e-01, 0., 0., 1.53898016e-01,
          5.57418048e-01, 1.52157918e-01, 8.38163495e-02, 4.30714935e-01,
          4.30714935e-01, 4.30714935e-01, 2.28537656e-02, 1.22812456e-02,
          4.30714935e-01, 4.30714935e-01, 2.50699669e-01, 6.78026825e-02,
          4.63377163e-02, 3.42265755e-01, 2.51200765e-01, 8.77993740e-03,
          2.23186659e-03, 5.20360827e-01, 5.20360827e-01, 5.20360827e-01,
          0., 0., 5.20716250e-01, 5.20716250e-01, 5.20716250e-01,
          1.11035556e-01, 1.46495253e-02, 2.34408915e-01, 3.14106584e-01,
          1.23326644e-01, 2.66469717e-01, 6.11187033e-02, 2.61769682e-01,
          4.43530798e-01, 4.43530798e-01, 3.86784486e-02, 2.52844363e-01,
          4.43530798e-01, 4.43530798e-01, 5.37071884e-01, 3.26952696e-01,
          6.40202388e-02, 1.17890820e-01, 5.37071884e-01, 3.66289727e-02,
          6.95477647e-04, 5.53253889e-02, 5.37071884e-01, 4.04494971e-01,
          4.04494971e-01, 4.04494971e-01, 2.87826173e-02, 2.16252714e-01,
          4.04494971e-01, 4.04494971e-01, 1.06790684e-01, 3.44790518e-01,
          3.60351533e-01, 4.08462346e-01, 3.61435711e-02, 0.,
          5.88531531e-02, 5.71751356e-01, 5.71751356e-01, 6.35398924e-02,
          1.87054321e-01, 3.88377346e-02, 1.15983717e-01, 0., 0., 0.,
          6.72857940e-01, 6.72857940e-01, 2.69901246e-01, 0., 0.,
          1.05150633e-01, 5.63441157e-01, 5.76550543e-01, 5.76550543e-01,
          0., 0., 4.63160593e-03, 2.96269134e-02, 9.56915915e-02,
          2.15786044e-03, 6.71882182e-02, 6.65791154e-01, 6.65791154e-01,
          0., 0., 2.32381430e-02, 3.04272503e-01, 2.53073573e-01,
          3.38029474e-01, 3.61627281e-01, 5.31570733e-01, 5.54720223e-01,
          1.52426168e-01, 5.49073557e-05, 4.81169112e-03, 2.68024713e-01,
          9.22195539e-02, 4.27510560e-01, 4.27510560e-01, 2.14103416e-01,
          4.27510560e-01, 4.27510560e-01, 4.27510560e-01, 1.61535472e-01,
          3.82705331e-02, 1.35540482e-04, 1.10772846e-03, 3.32318526e-03,
          0., 1.80136755e-01, 6.85614765e-01, 6.85614765e-01,
          1.43384352e-01, 1.35540482e-04, 0., 0., 0., 0., 0.,
          9.71262157e-01, 2.16704220e-01, 0., 0., 0., 0., 0., 0., 0., 0.,
          0., 0., 0., 0., 0., 0., 0., 9.95024860e-01, 0., 0., 0., 0., 0.,
          5.22399127e-01, 5.22399127e-01, 3.84068608e-01, 5.22043288e-01,
          1.62915215e-01, 4.67669182e-02, 1.46544855e-02, 0., 0.,
          4.43972647e-01, 4.43972647e-01, 1.82467043e-01, 3.82831514e-01,
          4.43972647e-01, 4.43972647e-01, 1.65118486e-01, 0., 0., 0., 0.,
          0., 0., 5.91055810e-01, 6.36848271e-01, 4.88588899e-01, 0., 0.,
          0., 0., 0., 0., 0., 0., 0., 0. ]
      - [ 0., 0., 0., 0., 0., 0., 0., 0., 0., 0., 0., 0., 0., 0., 0., 0.,
          0., 0., 0., 0., 0., 0., 0., 0., 0., 0., 0., 5.75688422e-01,
          5.75688422e-01, 0., 0., 0., 0., 0., 0., 5.75688422e-01,
          6.62311614e-01, 3.40035766e-01, 0., 0., 0., 0., 0.,
          2.12191604e-02, 6.62311614e-01, 5.85268497e-01, 0., 0., 0., 0.,
          0., 1.00172482e-01, 5.46848178e-01, 5.85268497e-01,
          5.28499782e-01, 5.28499782e-01, 5.28499782e-01, 0., 0., 0., 0.,
          0., 3.95962209e-01, 5.73835611e-01, 5.73835611e-01,
          5.90298362e-02, 0., 0., 0., 0., 5.40692993e-02, 5.73835611e-01,
          6.36365116e-01, 2.38036528e-01, 0., 0., 0., 0., 0.,
          3.56460601e-01, 6.36365116e-01, 6.31342471e-01, 6.31342471e-01,
          1.92350224e-01, 0., 3.01510990e-02, 2.19344348e-01,
          1.15013435e-01, 7.09339324e-03, 3.11788172e-01, 4.35662329e-01,
          4.35662329e-01, 1.63157791e-01, 5.01984321e-02, 4.35662329e-01,
          4.35662329e-01, 1.26802519e-01, 3.76892984e-02, 4.35662329e-01,
          4.61674720e-01, 1.17087111e-01, 1.51911035e-01, 4.63108309e-02,
          1.19095705e-01, 2.19031677e-01, 4.76447910e-01, 4.76447910e-01,
          4.76447910e-01, 2.89210498e-01, 6.73173010e-01, 6.73173010e-01,
          0., 0., 0., 0., 0., 5.75600415e-02, 4.30773109e-01,
          4.30773109e-01, 4.30773109e-01, 9.98525694e-02, 3.33381891e-01,
          2.56509691e-01, 3.91099781e-01, 2.59560104e-02, 3.13777745e-01,
          4.31626767e-01, 3.64801407e-01, 2.42466807e-01, 4.31626767e-01,
          4.31626767e-01, 1.25026375e-01, 1.37117758e-01, 1.55494854e-01,
          4.31626767e-01, 4.07741159e-01, 4.07741159e-01, 4.52683493e-02,
          1.70143917e-02, 3.83689255e-01, 4.07741159e-01, 4.07741159e-01,
          1.22907706e-01, 4.07741159e-01, 4.46662247e-01, 4.46662247e-01,
          1.72468439e-01, 3.70195843e-02, 3.99044186e-01, 4.46662247e-01,
          4.46662247e-01, 2.46849973e-02, 8.09219778e-02, 1.44747034e-01,
          3.18331629e-01, 1.61711276e-01, 2.47107502e-02, 1.58272535e-01,
          6.04719639e-01, 6.04719639e-01, 2.96672851e-01, 2.18517017e-02,
          2.08422229e-01, 6.87477648e-01, 6.87477648e-01, 6.66808411e-02,
          0., 0., 0., 0., 0., 3.78037661e-01, 4.08459097e-01,
          4.08459097e-01, 1.30529001e-01, 5.53267412e-02, 4.08459097e-01,
          4.08459097e-01, 3.33530903e-01, 2.33045146e-01, 4.51895684e-01,
          4.51895684e-01, 2.74663210e-01, 2.42070392e-01, 2.60593653e-01,
          4.51895684e-01, 4.05194223e-01, 6.08165972e-02, 1.14144713e-01,
          9.16669816e-02, 5.70274740e-02, 4.59005572e-02, 3.72473411e-02,
          6.19131267e-01, 6.19131267e-01, 4.52852845e-01, 7.08964616e-02,
          4.38194498e-02, 2.75076032e-01, 7.42699876e-02, 0.,
          4.40398930e-03, 6.60590351e-01, 6.60590351e-01, 1.89064398e-01,
          1.14072273e-02, 5.97336590e-02, 3.43107134e-02, 2.33295988e-02,
          0., 0., 4.82578069e-01, 6.52207553e-01, 5.76666474e-01,
          3.04006301e-02, 6.51107496e-03, 4.69866276e-01, 4.69866276e-01,
          4.69866276e-01, 3.14381927e-01, 4.69866276e-01, 1.15579672e-01,
          0., 0., 3.85701749e-03, 3.96665186e-01, 4.45402145e-01,
          4.45402145e-01, 1.03294127e-01, 4.45402145e-01, 4.45402145e-01,
          1.19135998e-01, 6.71831295e-02, 1.23688288e-01, 1.21712714e-01,
          1.28690794e-01, 1.14126625e-02, 0., 5.02730906e-01,
          7.50046968e-01, 3.76043797e-01, 1.48671372e-02, 6.37904629e-02,
          0., 3.45645472e-03, 1.03551289e-03, 0., 6.14101589e-01,
          6.14101589e-01, 4.82850969e-01, 8.04286003e-02, 0., 0., 0., 0.,
          0., 9.95024860e-01, 0., 0., 0., 0., 0., 0., 0., 0.,
          9.84170318e-01, 0., 0., 0., 0., 5.34716025e-02, 4.06040967e-01,
          5.14836669e-01, 5.02918005e-01, 5.14836669e-01, 2.09973097e-01,
          0., 0., 9.75767558e-04, 3.43751907e-02, 5.50215952e-02,
          1.08699016e-01, 1.31599918e-01, 6.92667723e-01, 6.92667723e-01,
          1.26115549e-02, 0., 2.44116480e-03, 0., 0., 0., 0.,
          6.97824895e-01, 6.97824895e-01, 1.38255864e-01, 0., 0., 0., 0.,
          0., 0., 0., 0., 0., 0., 0., 0., 0., 0., 0., 0., 0., 0., 0., 0.,
          0., 0., 0., 0., 0., 0., 0., 0., 0. ]
      - [ 0., 0., 0., 0., 0., 0., 0., 0., 0., 0., 0., 0., 0., 0., 0., 0.,
          0., 0., 0., 0., 0., 0., 0., 0., 0., 0., 0., 0., 0., 0., 0., 0.,
          0., 0., 0., 0., 0., 0., 0., 0., 0., 0., 0., 0., 0., 0., 0., 0.,
          0., 0., 0., 0., 0., 0., 6.97004616e-01, 0., 0., 0., 0., 0., 0.,
          0., 6.97004616e-01, 5.75688422e-01, 5.75688422e-01, 0., 0., 0.,
          0., 0., 0., 5.75688422e-01, 5.63807547e-01, 5.63807547e-01, 0.,
          1.06164720e-02, 1.12479404e-01, 1.67238832e-01, 0., 0.,
          5.63807547e-01, 5.61046660e-01, 1.57859832e-01, 0.,
          1.84371602e-02, 5.49234450e-01, 1.94762960e-01, 0., 0.,
          5.61046660e-01, 5.19279420e-01, 0., 1.27310181e-04,
          2.66304016e-01, 3.36459458e-01, 3.90170552e-02, 1.46783628e-02,
          5.19279420e-01, 5.19279420e-01, 6.59776926e-02, 0.,
          2.58302287e-04, 9.78503898e-02, 3.49851092e-03, 0.,
          4.33442146e-01, 6.29247725e-01, 6.29247725e-01, 6.60914719e-01,
          6.60914719e-01, 2.59002368e-03, 0., 0., 3.44224691e-01,
          2.58244537e-02, 0., 2.49203872e-02, 5.26567936e-01,
          5.26567936e-01, 2.21408540e-04, 0., 3.73621762e-01,
          5.26567936e-01, 4.97804321e-02, 0., 1.44390434e-01,
          4.93003905e-01, 4.93003905e-01, 8.20524544e-02, 1.60418414e-02,
          4.93003905e-01, 4.93003905e-01, 2.86258515e-02, 0.,
          1.22699797e-01, 4.85970110e-01, 1.64522856e-01, 9.19252168e-03,
          5.69515415e-02, 4.85970110e-01, 4.85970110e-01, 3.25820774e-01,
          2.43294224e-01, 3.01493704e-01, 9.10785198e-02, 2.71066904e-01,
          4.02715176e-01, 4.02715176e-01, 4.02715176e-01, 6.86210245e-02,
          3.14002931e-01, 4.02715176e-01, 4.02715176e-01, 9.53067502e-04,
          1.34503022e-01, 3.12531739e-01, 3.30058783e-01, 2.81962077e-03,
          2.35293787e-02, 5.41097701e-01, 5.41097701e-01, 4.28666115e-01,
          4.70141262e-01, 4.70141262e-01, 3.12056333e-01, 9.07353908e-02,
          7.44707435e-02, 4.70141262e-01, 4.70141262e-01, 3.86750163e-03,
          0., 3.79348814e-01, 4.58777219e-01, 7.93186799e-02, 0.,
          3.85712177e-01, 6.08864307e-01, 3.37273449e-01, 1.95740350e-03,
          5.51902747e-04, 2.83121943e-01, 3.95158738e-01, 3.95158738e-01,
          3.95158738e-01, 2.57000148e-01, 3.95158738e-01, 3.38579744e-01,
          3.12115133e-01, 1.14854343e-01, 3.73004436e-01, 3.38725120e-01,
          7.41541162e-02, 3.06930691e-01, 2.93550342e-01, 3.73004436e-01,
          3.73004436e-01, 3.73004436e-01, 3.73004436e-01, 4.57803011e-01,
          4.57803011e-01, 3.75684768e-01, 5.53932413e-02, 4.11867276e-02,
          4.57803011e-01, 4.57803011e-01, 8.90580043e-02, 5.70763312e-02,
          4.35369052e-02, 4.93405730e-01, 1.37739360e-01, 2.01869775e-02,
          1.12263930e-04, 4.93405730e-01, 4.93405730e-01, 4.93405730e-01,
          0., 6.16327636e-02, 4.00467873e-01, 4.07491982e-01,
          4.07491982e-01, 4.07491982e-01, 4.07491982e-01, 4.07491982e-01,
          3.88270393e-02, 0., 1.65288169e-02, 7.43184984e-02,
          1.72345206e-01, 0., 4.09223080e-01, 6.23481154e-01,
          6.23481154e-01, 1.15562640e-01, 0., 0., 1.23645321e-01,
          5.50089061e-01, 5.50089061e-01, 5.50089061e-01, 0.,
          4.90508340e-02, 2.17892632e-01, 1.46770388e-01, 3.61302108e-01,
          7.44100511e-02, 5.05696610e-02, 4.98552144e-01, 4.98552144e-01,
          1.86167985e-01, 2.52349153e-02, 2.74643809e-01, 4.98552144e-01,
          5.22478700e-01, 3.79212737e-01, 1.77403470e-03, 8.30795430e-03,
          5.22478700e-01, 5.22478700e-01, 1.67797402e-01, 8.82574450e-03,
          6.10070974e-02, 5.20222187e-02, 1.56895563e-01, 4.49340697e-03,
          0., 1.20042622e-01, 6.85530603e-01, 6.85530603e-01,
          1.07233889e-01, 0., 0., 0., 0., 0., 9.95024860e-01, 0., 0., 0.,
          0., 0., 0., 0., 0., 9.62773263e-01, 0., 0., 0., 0., 0., 0., 0.,
          0., 9.95024860e-01, 0., 0., 0., 0., 0., 0., 0., 0.,
          9.95024860e-01, 0., 0., 0., 0., 0., 0., 0., 0., 9.95024860e-01,
          0., 0., 0., 0., 0., 0., 0., 0., 9.65505898e-01, 0., 0., 0., 0. ]
      - [ 0., 0., 0., 0., 0., 0., 0., 0., 0., 0., 0., 0., 0., 0., 0., 0.,
          0., 0., 0., 0., 0., 0., 0., 0., 0., 0., 0., 0., 0., 0., 0., 0.,
          0., 0., 0., 0., 0., 0., 0., 0., 0., 0., 0., 0., 0.,
          6.07538760e-01, 5.05694807e-01, 0., 0., 0., 0., 0., 0.,
          6.07538760e-01, 0., 0., 0., 0., 0., 0., 0., 0., 0.,
          5.75688422e-01, 5.75688422e-01, 0., 0., 0., 0., 0., 0.,
          5.75688422e-01, 6.77878797e-01, 1.44477665e-01, 0., 0., 0., 0.,
          5.94225340e-03, 2.30834335e-01, 6.77878797e-01, 5.73822975e-01,
          2.94573139e-02, 0., 0., 0., 0., 7.47263581e-02, 5.73822975e-01,
          5.73822975e-01, 6.96971834e-01, 6.96971834e-01, 0., 0.,
          1.87564436e-02, 2.46343184e-02, 0., 0., 1.43333092e-01,
          5.35629451e-01, 5.35629451e-01, 0., 0., 3.53014544e-02,
          5.35629451e-01, 1.91426829e-01, 1.68523982e-01, 2.60121822e-01,
          2.15466425e-01, 6.88006580e-01, 6.88006580e-01, 0., 0., 0., 0.,
          0., 0., 5.83044469e-01, 5.83044469e-01, 2.28285998e-01,
          2.00202484e-02, 2.03397721e-01, 2.90820360e-01, 3.22366506e-01,
          2.44145133e-02, 1.76968053e-01, 3.72092694e-01, 3.72092694e-01,
          3.72092694e-01, 1.79197893e-01, 3.72092694e-01, 3.08893532e-01,
          1.95032880e-01, 3.72092694e-01, 3.72092694e-01, 5.30991137e-01,
          2.57315874e-01, 1.07222125e-01, 1.89916417e-02, 1.73593402e-01,
          9.50305462e-02, 1.77786812e-01, 5.30991137e-01, 5.30991137e-01,
          5.40619075e-01, 5.40619075e-01, 0., 2.03762083e-05,
          2.81729907e-01, 5.40619075e-01, 9.03972015e-02, 1.63992103e-02,
          1.73152238e-01, 5.78304946e-01, 4.32619900e-01, 0., 0.,
          3.11864763e-01, 5.79462051e-01, 1.95629135e-01, 3.13909650e-02,
          1.80304032e-02, 4.08915468e-02, 6.64965749e-01, 6.64965749e-01,
          3.27613294e-01, 0., 0., 0., 0., 0., 1.61609858e-01,
          4.10657138e-01, 4.10657138e-01, 4.10657138e-01, 1.06632277e-01,
          2.44257048e-01, 4.10657138e-01, 4.10657138e-01, 2.35694066e-01,
          3.15435618e-01, 3.77262563e-01, 3.77262563e-01, 2.02727064e-01,
          3.77262563e-01, 3.77262563e-01, 3.77262563e-01, 2.67456472e-01,
          2.69193172e-01, 3.94719660e-01, 1.67901516e-01, 1.11406073e-01,
          5.04262894e-02, 5.73424757e-01, 5.73424757e-01, 8.00704136e-02,
          1.33484647e-01, 3.36844265e-01, 2.76418060e-01, 1.26234412e-01,
          0., 1.41805067e-04, 6.60095751e-01, 6.60095751e-01,
          1.35880619e-01, 2.04555131e-03, 1.05581291e-01, 1.44427028e-02,
          1.46489441e-02, 0., 0., 6.94920182e-01, 6.94920182e-01,
          1.63742587e-01, 0., 0., 0., 4.91030067e-01, 6.13499820e-01,
          6.13499820e-01, 0., 0., 0., 0., 0., 7.93460608e-02,
          8.49902332e-02, 5.47762811e-01, 5.47762811e-01, 5.47762811e-01,
          1.68272495e-01, 6.94206506e-02, 1.18983328e-01, 1.83267012e-01,
          2.27290660e-01, 1.29549727e-01, 1.76873989e-02, 3.01986009e-01,
          5.05372226e-01, 5.05372226e-01, 5.05372226e-01, 9.23068225e-02,
          2.45512515e-01, 4.54472052e-03, 3.06234863e-02, 3.12121492e-03,
          2.14349441e-02, 5.94312608e-01, 5.94312608e-01, 5.30491233e-01,
          6.92990646e-02, 0., 0., 0., 0., 0., 7.04615593e-01,
          7.04615593e-01, 0., 0., 0., 0., 0., 0., 0., 0., 0., 0., 0., 0.,
          0., 0., 0., 0., 0., 0., 0., 0., 0., 0., 0., 0., 6.98556006e-01,
          6.98556006e-01, 1.30635560e-01, 0., 0., 0., 0., 0., 0.,
          2.84919947e-01, 6.75306976e-01, 6.75306976e-01, 0., 0., 0., 0.,
          0., 0., 0., 5.81286252e-02, 9.78325009e-01, 0., 0., 0., 0., 0.,
          0., 0., 0., 0., 0., 0., 0., 0., 0., 0., 0., 0., 0., 0., 0., 0. ]
      - [ 4.75922883e-01, 4.75922883e-01, 4.75922883e-01, 4.75922883e-01,
          9.98789296e-02, 0., 0., 0., 2.81531841e-01, 4.60554928e-01,
          1.59214392e-01, 3.44005942e-01, 4.60554928e-01, 7.59532899e-02,
          0., 0., 4.57830757e-01, 4.60554928e-01, 3.95523846e-01,
          4.38314710e-05, 4.82162723e-04, 6.69553578e-02, 3.01692672e-02,
          0., 0., 6.44875705e-01, 6.44875705e-01, 5.93713105e-01,
          2.40427962e-05, 7.21283941e-05, 0., 0., 0., 3.95988263e-02,
          5.36202610e-01, 5.93713105e-01, 4.98753130e-01, 0., 0., 0., 0.,
          0., 4.98753130e-01, 4.98753130e-01, 4.98753130e-01, 0., 0., 0.,
          0., 0., 0., 0., 0., 0., 8.40028841e-03, 1.46177456e-01,
          6.40060008e-01, 6.40060008e-01, 3.90828609e-01, 0., 0., 0.,
          8.40028841e-03, 2.17433255e-02, 6.33115042e-03, 1.19269744e-01,
          7.69734800e-01, 6.13796234e-01, 0., 0., 2.84422394e-02,
          8.67932960e-02, 1.43977642e-01, 1.57136425e-01, 3.83026421e-01,
          5.07317841e-01, 5.07317841e-01, 0., 3.88466375e-04,
          1.75180748e-01, 5.07317841e-01, 4.52592373e-01, 1.00988239e-01,
          2.71616787e-01, 1.24851465e-01, 1.39173940e-01, 2.39140481e-01,
          4.52592373e-01, 4.52592373e-01, 4.52592373e-01, 9.04365852e-02,
          0., 0., 0., 0., 3.77478302e-01, 5.55239737e-01, 5.55239737e-01,
          4.76659626e-01, 0., 0., 0., 0., 0., 0., 0., 0., 0., 0., 0., 0.,
          0., 0., 0., 0., 0., 0., 4.40477431e-01, 2.96692252e-01,
          3.77351403e-01, 4.40477431e-01, 4.40477431e-01, 0., 0., 0.,
          4.27923471e-01, 2.38511220e-01, 5.53588092e-01, 5.53588092e-01,
          3.49443555e-01, 4.49526429e-01, 0., 1.29567487e-02,
          4.32681246e-03, 1.71267092e-02, 4.34631296e-02, 4.54281181e-01,
          4.91290718e-01, 3.06375343e-02, 2.91050114e-02, 4.91290718e-01,
          4.91290718e-01, 2.46387839e-01, 1.54972607e-02, 1.49337888e-01,
          0., 0., 0., 0., 6.21306837e-01, 6.21306837e-01, 4.20601636e-01,
          1.50149226e-01, 6.95329547e-01, 0., 0., 0., 0., 0., 0., 0.,
          6.95329547e-01, 4.61528271e-01, 4.61528271e-01, 4.61528271e-01,
          3.74797076e-01, 5.37014715e-02, 0., 0., 0., 4.61528271e-01,
          6.42830849e-01, 3.49762499e-01, 5.57744056e-02, 6.74245730e-02,
          1.92687169e-01, 0., 0., 0., 6.42830849e-01, 4.81882572e-01,
          4.81882572e-01, 4.81882572e-01, 6.85153622e-03, 2.65654802e-01,
          1.35763874e-02, 4.95992191e-02, 1.63231399e-02, 4.74367112e-01,
          4.74496037e-01, 1.92762569e-01, 1.17422618e-01, 8.62217788e-03,
          1.31830603e-01, 1.62097424e-01, 4.74496037e-01, 4.74496037e-01,
          4.74496037e-01, 5.67400813e-01, 0., 0., 0., 1.13232248e-02,
          3.60314548e-02, 1.64549187e-01, 5.67400813e-01, 5.67400813e-01,
          3.26787457e-02, 0., 0., 0., 0., 0., 2.20046967e-01,
          6.86896741e-01, 6.86896741e-01, 3.64887625e-01, 3.06761175e-01,
          4.93572325e-01, 4.93572325e-01, 4.93572325e-01, 0., 0., 0.,
          1.92312509e-01, 4.82280463e-01, 4.68995534e-02, 2.04946622e-02,
          5.65958440e-01, 5.65958440e-01, 2.69163042e-01, 0., 0.,
          2.14633912e-01, 1.72940925e-01, 4.63490561e-02, 3.67648248e-03,
          4.50716287e-01, 7.83621967e-01, 3.67493480e-01, 2.25145672e-03,
          7.50485575e-04, 8.85621756e-02, 8.97416323e-02, 2.70761154e-03,
          1.06798601e-03, 6.96029603e-01, 6.96029603e-01, 1.28670717e-02,
          1.35503681e-02, 2.72705406e-02, 1.22403122e-01, 8.28515515e-02,
          0., 0., 4.86223936e-01, 4.86223936e-01, 1.77491978e-01,
          1.05456717e-01, 4.86223936e-01, 4.86223936e-01, 0., 0., 0.,
          1.17141515e-01, 3.83474678e-01, 4.56799269e-01, 4.56799269e-01,
          4.56799269e-01, 4.56799269e-01, 0., 0., 0., 7.04615593e-01,
          7.04615593e-01, 0., 0., 0., 0., 0., 0., 0., 5.27733147e-01,
          8.08728516e-01, 2.43690372e-01, 0., 0., 0., 0., 0., 0.,
          3.45525652e-01, 8.99646223e-01, 2.49544606e-01, 0., 0., 0., 0.,
          0., 0., 7.04611719e-01, 7.04611719e-01, 3.35317710e-03, 0., 0.,
          0., 0., 0., 0., 6.80461287e-01, 6.80461287e-01, 2.53675133e-01,
          5.04668616e-02, 1.59384198e-02, 0., 0., 0., 0., 2.60325730e-01,
          5.33878982e-01, 5.33878982e-01, 5.33878982e-01, 2.67990261e-01,
          0. ]
      - [ 0., 0., 0., 0., 0., 0., 0., 0., 0., 4.83469427e-01,
          8.70386302e-01, 0., 0., 0., 0., 0., 0., 0., 6.32092834e-01,
          6.32092834e-01, 0., 0., 0., 0., 0., 0., 4.41142231e-01,
          5.74774206e-01, 5.74774206e-01, 0., 3.37845035e-04,
          5.62527142e-02, 0., 0., 0., 5.74774206e-01, 5.75162828e-01,
          6.13086810e-03, 0., 4.45857004e-04, 4.16060276e-02, 0.,
          7.13707181e-03, 5.75162828e-01, 5.75162828e-01, 1.14837356e-01,
          0., 0., 0., 0., 0., 2.31494024e-01, 6.80598438e-01,
          6.80598438e-01, 0., 9.75080788e-01, 1.98721737e-01, 0., 0., 0.,
          0., 0., 0., 7.04378784e-01, 7.04378784e-01, 2.41408497e-02,
          2.56903208e-04, 0., 9.08605475e-03, 1.29517342e-03, 0.,
          1.64146023e-03, 4.84245032e-01, 4.84245032e-01, 2.11699912e-03,
          3.42230924e-04, 3.26442659e-01, 4.84245032e-01, 4.15499896e-01,
          1.45184863e-02, 1.10739954e-01, 4.98951435e-01, 3.58781606e-01,
          3.45882513e-02, 2.24703878e-01, 4.98951435e-01, 4.98951435e-01,
          1.71621144e-01, 1.74647216e-02, 1.94904566e-01, 1.15583211e-01,
          1.00649014e-01, 4.36403275e-01, 4.36403275e-01, 4.36403275e-01,
          8.68222266e-02, 1.11237839e-01, 4.36403275e-01, 4.36403275e-01,
          1.21191319e-03, 1.19831860e-02, 1.05122596e-01, 3.64474184e-03,
          7.05076568e-03, 3.29037226e-04, 5.72429001e-01, 5.72429001e-01,
          5.72429001e-01, 3.75960916e-01, 6.52739108e-01, 6.52739108e-01,
          0., 0., 0., 0., 0., 0., 6.03312671e-01, 6.54147863e-01,
          3.28107774e-01, 2.21647701e-04, 2.95165069e-02, 1.22834034e-01,
          2.65255243e-01, 6.64820224e-02, 5.63859530e-02, 3.09546798e-01,
          3.71976346e-01, 1.94585342e-02, 4.47462546e-04, 1.62735894e-01,
          4.74881023e-01, 4.74881023e-01, 2.47685120e-01, 4.70996410e-01,
          9.96500924e-02, 3.07780892e-01, 4.43293184e-01, 1.37071833e-01,
          4.43293184e-01, 4.43293184e-01, 4.43293184e-01, 2.71446645e-01,
          1.11379728e-01, 3.64060290e-02, 5.82147300e-01, 5.82147300e-01,
          2.92087674e-01, 1.19028032e-01, 1.62987530e-01, 4.05450195e-01,
          1.55813158e-01, 1.88496765e-02, 0., 9.16382074e-02,
          2.10405082e-01, 9.74841136e-03, 1.79183355e-03, 5.23361921e-01,
          5.75848103e-01, 5.75848103e-01, 6.61361516e-02, 5.74254930e-01,
          5.74254930e-01, 5.74254930e-01, 5.67807183e-02, 1.61854345e-02,
          1.32161786e-03, 3.51957008e-02, 9.58233047e-03, 1.18769435e-02,
          4.20701504e-01, 4.20701504e-01, 3.09575647e-01, 8.80807918e-03,
          4.20701504e-01, 4.20701504e-01, 3.58750731e-01, 1.20536707e-01,
          2.20663682e-01, 1.84595540e-01, 1.52448062e-02, 4.55361372e-03,
          2.26025018e-04, 8.31659660e-02, 5.18348098e-01, 5.18348098e-01,
          3.84088129e-01, 5.18348098e-01, 5.20981133e-01, 5.20981133e-01,
          2.12187573e-01, 0., 0., 2.88265079e-01, 5.20981133e-01,
          1.71104997e-01, 1.52104393e-01, 4.11723256e-01, 4.54300880e-01,
          4.54300880e-01, 0., 1.43376105e-02, 4.54300880e-01,
          4.54300880e-01, 1.33891422e-02, 2.07848451e-03, 8.68104491e-03,
          6.89896792e-02, 9.57477838e-02, 0., 1.21051650e-02,
          6.85817838e-01, 6.85817838e-01, 1.95735201e-01, 3.30755167e-04,
          1.46425426e-01, 5.31756163e-01, 5.31756163e-01, 5.31756163e-01,
          3.46454024e-01, 3.04794358e-03, 6.11366816e-02, 2.96804551e-02,
          1.72328427e-02, 3.98910671e-01, 7.70461336e-02, 1.35067716e-01,
          4.09388840e-01, 4.77945894e-01, 2.65994251e-01, 2.65026510e-01,
          2.15549216e-01, 4.77945894e-01, 5.18329144e-01, 2.98208985e-02,
          8.46863713e-06, 1.63427636e-03, 5.18329144e-01, 3.38465184e-01,
          1.87402353e-01, 1.95595920e-01, 5.18329144e-01, 4.55395132e-01,
          4.55395132e-01, 5.40885003e-03, 4.21515753e-04, 4.55395132e-01,
          4.55395132e-01, 9.55289677e-02, 1.70746576e-02, 3.95557284e-01,
          2.51703918e-01, 3.71456325e-01, 2.65794285e-02, 0.,
          8.74918029e-02, 6.25311792e-01, 6.25311792e-01, 4.47533056e-02,
          5.32115344e-03, 4.57940064e-03, 0., 0., 0., 0., 6.93701565e-01,
          6.93701565e-01, 1.74957797e-01, 1.74479050e-04, 1.59439503e-03,
          6.71029314e-02, 5.74385583e-01, 5.74385583e-01, 5.74385583e-01,
          0., 0., 0., 1.59439503e-03, 4.64603081e-02, 2.60935957e-03,
          4.82536182e-02, 3.61755252e-01, 9.23415363e-01, 7.37953524e-04,
          0., 0., 5.22491187e-02, 1.07612856e-01, 0., 0., 1.36746280e-03,
          9.75152612e-01, 1.16450642e-03, 0., 0., 1.66630968e-01,
          1.14994593e-01, 0., 0., 3.56090430e-04, 6.98368490e-01,
          6.98368490e-01, 3.22936177e-02, 0., 5.76605350e-02,
          1.07526230e-02, 0., 0., 0., 6.72116339e-01, 6.72116339e-01,
          2.99487889e-01, 0., 9.83402948e-04, 0., 0., 0., 0., 0.,
          9.69735026e-01, 1.38231069e-01, 0., 0. ]
      - [ 0., 0., 0., 0., 0., 0., 0., 0., 0., 0., 0., 0., 0., 0., 0., 0.,
          0., 0., 0., 0., 0., 0., 0., 0., 0., 0., 0., 0., 0., 0., 0., 0.,
          0., 0., 0., 0., 0., 0., 0., 0., 0., 0., 0., 0., 0., 0., 0., 0.,
          0., 0., 0., 0., 0., 0., 0., 0., 0., 0., 0., 0., 0., 0., 0.,
          6.88505530e-01, 6.88505530e-01, 0., 0., 0., 0., 0., 0.,
          2.12243423e-01, 5.63120127e-01, 5.63120127e-01, 0.,
          1.33206481e-02, 1.46282375e-01, 1.46586984e-01, 0., 0.,
          5.63120127e-01, 5.39994299e-01, 1.64746642e-01, 7.32596219e-02,
          5.18007204e-02, 1.95180804e-01, 9.99845266e-02, 1.91158593e-01,
          5.39994299e-01, 5.39994299e-01, 4.56656039e-01, 4.56656039e-01,
          1.36339292e-02, 2.58924614e-04, 1.81305446e-02, 0.,
          4.00980115e-01, 4.56656039e-01, 4.56656039e-01, 4.94709581e-01,
          4.11168396e-01, 0., 5.83773595e-04, 1.14455394e-01,
          3.04666191e-01, 2.17576876e-01, 4.28092211e-01, 4.94709581e-01,
          6.45743012e-01, 6.45743012e-01, 3.99481058e-01, 0., 0., 0., 0.,
          0., 0., 5.70598483e-01, 5.70598483e-01, 9.32438374e-02, 0.,
          2.69170925e-02, 5.70598483e-01, 7.97955319e-02, 0.,
          4.20498140e-02, 4.96324360e-01, 4.96324360e-01, 5.66620938e-02,
          1.98412780e-02, 4.96324360e-01, 4.96324360e-01, 2.49655526e-02,
          0., 7.39188492e-02, 3.51281255e-01, 3.51281255e-01,
          3.51281255e-01, 9.64473709e-02, 3.51281255e-01, 3.51281255e-01,
          3.51281255e-01, 3.51281255e-01, 3.51281255e-01, 4.78410929e-01,
          4.78410929e-01, 2.80581098e-02, 2.16388493e-04, 2.89226860e-01,
          4.78410929e-01, 2.60801762e-01, 2.08175927e-01, 3.35851878e-01,
          5.01195252e-01, 3.34429950e-01, 0., 1.14310381e-03,
          5.01195252e-01, 5.01195252e-01, 2.03113675e-01, 2.40665779e-01,
          1.74311861e-01, 3.03961784e-01, 6.31992996e-01, 6.31992996e-01,
          1.70951307e-01, 3.62676079e-03, 1.00863993e-01, 2.42142051e-01,
          6.60222396e-02, 8.01887922e-03, 4.55421835e-01, 4.55421835e-01,
          2.67474949e-01, 7.92253315e-02, 1.01451427e-01, 4.55421835e-01,
          4.55421835e-01, 2.44735911e-01, 1.33443728e-01, 5.42349160e-01,
          5.42349160e-01, 1.66283846e-02, 1.05780363e-02, 3.13072711e-01,
          5.42349160e-01, 1.03645995e-01, 1.72558445e-02, 5.20851500e-02,
          4.11065102e-01, 5.24062335e-01, 7.02962428e-02, 0.,
          5.16358256e-01, 5.24062335e-01, 5.90092242e-02, 1.97563227e-02,
          3.26977186e-02, 2.45261416e-01, 1.05741657e-01, 2.94200564e-03,
          0., 6.77689910e-01, 6.77689910e-01, 2.63551176e-02,
          1.48723796e-02, 4.94835004e-02, 3.74781825e-02, 6.82958821e-03,
          0., 0., 7.04054177e-01, 7.04054177e-01, 0., 0., 1.16706742e-02,
          8.74221791e-03, 4.94888455e-01, 4.94888455e-01, 4.94888455e-01,
          4.94888455e-01, 1.13247456e-02, 7.67609030e-02, 9.57430378e-02,
          1.16286855e-02, 4.41899270e-01, 2.18139380e-01, 2.79100060e-01,
          4.41899270e-01, 4.41899270e-01, 4.41899270e-01, 1.57202706e-01,
          1.96752697e-01, 1.59938097e-01, 4.92353678e-01, 2.16732666e-01,
          0., 1.92598272e-02, 5.92734933e-01, 5.92734933e-01,
          3.36504467e-02, 6.12024916e-03, 2.20503453e-02, 5.09086400e-02,
          2.13362556e-02, 0., 0., 6.97369337e-01, 6.97369337e-01,
          1.31690904e-01, 0., 9.88965970e-04, 0., 0., 0., 0.,
          7.04615593e-01, 7.04615593e-01, 0., 0., 0., 0., 0., 0., 0., 0.,
          0., 0., 0., 0., 0., 0., 0., 7.04615593e-01, 7.04615593e-01, 0.,
          0., 0., 0., 0., 0., 0., 4.63128030e-01, 6.46042526e-01,
          6.01407886e-01, 0., 0., 0., 0., 0., 0., 0., 9.47551668e-01,
          3.04454535e-01, 0., 0., 0., 0., 0., 0., 0., 9.67695832e-01, 0.,
          0., 0., 0., 0., 0., 0., 0., 0., 0., 0., 0., 0., 0., 0., 0., 0.,
          0., 0., 0., 0., 0. ]
      - [ 0., 0., 0., 0., 0., 0., 0., 0., 0., 0., 0., 0., 0., 0., 0., 0.,
          0., 0., 0., 0., 0., 0., 0., 0., 0., 0., 0., 0., 0., 0., 0., 0.,
          0., 0., 0., 0., 7.04615593e-01, 0., 0., 0., 0., 0., 0., 0.,
          7.04615593e-01, 7.04615593e-01, 0., 0., 0., 0., 0., 0., 0.,
          7.04615593e-01, 0., 0., 0., 0., 0., 0., 0., 0., 0., 0., 0., 0.,
          0., 0., 0., 0., 0., 0., 6.19994044e-01, 5.51907897e-01, 0., 0.,
          0., 0., 0., 0., 5.52100420e-01, 6.59839988e-01, 6.59839988e-01,
          0., 0., 0., 0., 0., 0., 3.50192845e-01, 6.24958217e-01,
          4.40380484e-01, 0., 0., 1.11903012e-01, 7.80120268e-02, 0.,
          8.46928637e-03, 6.24958217e-01, 4.48060006e-01, 1.37531877e-01,
          0., 0., 2.22556397e-01, 3.52203012e-01, 4.48060006e-01,
          4.48060006e-01, 4.48060006e-01, 6.93185627e-01, 0., 0., 0., 0.,
          0., 0., 0., 6.93185627e-01, 5.75688422e-01, 5.75688422e-01, 0.,
          0., 0., 0., 0., 0., 5.75688422e-01, 6.76057816e-01,
          6.76057816e-01, 0., 0., 3.11099365e-02, 3.82311605e-02,
          4.05618409e-03, 0., 2.76941717e-01, 5.37708819e-01,
          5.37708819e-01, 0., 0., 3.32939267e-01, 5.37708819e-01,
          8.55140239e-02, 2.98882416e-03, 9.52245221e-02, 5.51568329e-01,
          2.37810820e-01, 0., 0., 5.51568329e-01, 5.51568329e-01,
          3.55132632e-02, 7.82513758e-04, 1.54897243e-01, 1.53285697e-01,
          1.27271768e-02, 0., 0., 5.21971881e-01, 5.21971881e-01,
          5.21971881e-01, 3.16523641e-01, 2.31468126e-01, 5.74279368e-01,
          5.74279368e-01, 5.74279368e-01, 0., 3.72973154e-03, 0., 0., 0.,
          6.97214231e-02, 6.47886455e-01, 6.47886455e-01, 3.69369537e-02,
          0., 1.13113664e-01, 3.06037515e-01, 2.35808711e-03, 0.,
          2.14928582e-01, 5.05643129e-01, 5.05643129e-01, 0., 0.,
          4.02940691e-01, 5.05643129e-01, 4.94081639e-02, 0.,
          2.51242369e-01, 1.86997950e-01, 1.15364097e-01, 0., 0.,
          6.70403361e-01, 6.70403361e-01, 2.14490637e-01, 1.10598712e-03,
          1.18862167e-02, 5.68415597e-03, 2.01430521e-03, 0., 0.,
          6.92788363e-01, 6.92788363e-01, 1.82027906e-01, 3.41368432e-04,
          1.42125832e-03, 0., 0., 0., 0., 7.04615593e-01, 7.04615593e-01,
          0., 0., 0., 4.64254856e-01, 4.64254856e-01, 4.64254856e-01,
          4.64254856e-01, 3.04267496e-01, 2.00870708e-01, 0., 0.,
          1.74582452e-02, 4.13600981e-01, 2.55634487e-01, 1.43253952e-01,
          4.08669233e-01, 5.33742189e-01, 5.33742189e-01, 8.45949259e-03,
          0., 2.98293214e-02, 2.35329140e-02, 1.67979915e-02, 0., 0.,
          6.75238431e-01, 7.30627716e-01, 4.58359867e-02, 0.,
          2.52765510e-03, 0., 0., 0., 0., 7.01962411e-01, 7.01962411e-01,
          8.65469575e-02, 0., 0., 0., 0., 0., 0., 0., 9.65507329e-01,
          1.37628436e-01, 0., 0., 0., 0., 0., 0., 0., 0., 0., 0., 0., 0.,
          9.35176164e-02, 3.57586026e-01, 6.07507288e-01, 6.07507288e-01,
          3.45240057e-01, 0., 0., 0., 0., 4.09449358e-03, 2.52128430e-02,
          5.63712060e-01, 5.81279576e-01, 5.81279576e-01, 0., 0., 0., 0.,
          0., 0., 0., 7.04615593e-01, 7.04615593e-01, 0., 0., 0., 0., 0.,
          0., 0., 0., 0., 0., 0., 0., 0., 0., 0., 0., 0., 0., 0., 0., 0.,
          0., 0., 0., 0., 0., 0., 0., 0., 0. ]
      - [ 0., 0., 0., 0., 0., 0., 0., 0., 0., 5.57308972e-01,
          5.57308972e-01, 5.57308972e-01, 0., 0., 0., 0., 0.,
          2.50309795e-01, 4.76957470e-01, 4.76957470e-01, 2.51891941e-01,
          0., 0., 0., 1.47759289e-01, 4.76957470e-01, 4.76957470e-01,
          2.45814770e-01, 4.99525309e-01, 2.05742896e-01, 0., 0., 0.,
          3.79050523e-01, 4.99525309e-01, 4.99525309e-01, 5.28386056e-01,
          5.28386056e-01, 6.86110258e-02, 0., 0., 0., 1.11136191e-01,
          3.74284536e-01, 5.28386056e-01, 4.94788319e-01, 1.25683978e-01,
          0., 0., 0., 0., 4.94788319e-01, 4.94788319e-01, 4.94788319e-01,
          0., 0., 0., 0., 0., 0., 0., 0., 0., 3.56954992e-01,
          6.57976687e-01, 6.57976687e-01, 0., 0., 0., 0., 0.,
          1.21495202e-02, 1.88765034e-01, 4.31496054e-01, 4.31496054e-01,
          0., 0., 1.70626253e-01, 4.31496054e-01, 4.31496054e-01,
          4.31496054e-01, 2.03779507e-02, 4.93402451e-01, 4.93402451e-01,
          0., 0., 9.42720696e-02, 4.93402451e-01, 4.93402451e-01,
          1.09479457e-01, 4.43345994e-01, 4.56947714e-01, 3.69964719e-01,
          0., 0., 3.62964988e-01, 4.56947714e-01, 2.77586192e-01,
          1.88696057e-01, 2.07124084e-01, 1.11609370e-01, 2.56461203e-02,
          0., 0., 5.37763536e-01, 5.37763536e-01, 5.37763536e-01,
          2.66544431e-01, 6.02308035e-01, 5.25150061e-01, 9.55085456e-02,
          0., 0., 0., 0., 0., 5.88478267e-01, 6.71840131e-01,
          6.71840131e-01, 9.92374197e-02, 0., 0., 1.21400319e-01,
          2.19638258e-01, 6.57754466e-02, 1.15762837e-01, 4.26826090e-01,
          4.26826090e-01, 1.74144626e-01, 0., 0., 4.26826090e-01,
          4.26826090e-01, 2.33468145e-01, 4.26826090e-01, 4.42496151e-01,
          4.42496151e-01, 4.42496151e-01, 0., 0., 1.52093217e-01,
          4.29378688e-01, 6.97862804e-02, 4.42496151e-01, 7.17274696e-02,
          4.86608893e-01, 4.86608893e-01, 0., 0., 4.86608893e-01,
          4.86608893e-01, 2.04248056e-01, 3.35389785e-02, 0.,
          8.40860140e-03, 1.02683902e-02, 0., 0., 6.49412334e-01,
          6.49412334e-01, 3.87127280e-01, 0., 4.15239066e-01,
          4.15239066e-01, 4.15239066e-01, 4.15239066e-01, 4.15239066e-01,
          1.98101223e-01, 0., 0., 3.07393104e-01, 5.81678808e-01,
          3.77711356e-01, 0., 3.11627500e-02, 5.81678808e-01,
          3.55734259e-01, 9.67532396e-02, 6.20557554e-02, 1.84648946e-01,
          5.45921504e-01, 2.72903498e-02, 0., 1.20575294e-01,
          5.45921504e-01, 1.26698002e-01, 2.06203446e-01, 1.63101271e-01,
          5.45921504e-01, 5.04207909e-01, 1.37345478e-01, 3.18947256e-01,
          2.40067378e-01, 5.04207909e-01, 2.31349647e-01, 2.19122078e-02,
          7.82244746e-03, 5.04207909e-01, 1.87965110e-01, 2.19952703e-01,
          5.24927795e-01, 1.77032977e-01, 1.71605736e-01, 4.47285026e-02,
          5.24927795e-01, 5.24927795e-01, 1.47003576e-01, 0., 0., 0., 0.,
          0., 4.34317030e-02, 7.03948438e-01, 7.03948438e-01, 0.,
          1.93896191e-03, 5.18289804e-02, 2.83686876e-01, 6.22258067e-01,
          6.22258067e-01, 3.69064391e-01, 0., 0., 5.27566648e-04,
          2.88401730e-04, 8.13640130e-04, 0., 4.82911393e-02,
          8.33714485e-01, 5.42464256e-01, 0., 0., 1.69860228e-04, 0., 0.,
          0., 1.71359837e-01, 9.79651093e-01, 3.38688865e-02, 0., 0., 0.,
          0., 4.92387205e-01, 4.92387205e-01, 4.92387205e-01,
          4.92387205e-01, 1.59050733e-01, 2.00035423e-03, 6.66784705e-04,
          0., 0., 3.95525098e-01, 3.95525098e-01, 2.58157700e-01,
          3.95525098e-01, 3.95525098e-01, 3.95525098e-01, 3.83670151e-01,
          0., 0., 0., 0., 0., 7.18583912e-02, 3.50293010e-01,
          6.57861412e-01, 6.57861412e-01, 0., 0., 0., 0., 0., 0., 0., 0.,
          0., 0., 0., 0., 0., 0., 0., 0., 0., 0., 0., 0., 0., 0., 0., 0.,
          0., 0., 0., 0., 0., 4.06472832e-01, 5.24064839e-01,
          5.24064839e-01, 5.24064839e-01, 7.49276951e-02, 0., 0., 0., 0.,
          9.24603716e-02, 1.69199392e-01, 3.32892478e-01, 5.42780817e-01,
          5.42780817e-01, 5.00993729e-01, 7.98002928e-02, 0., 0., 0., 0.,
          0., 5.00946522e-01, 5.35397172e-01, 6.20521963e-01,
          2.66756982e-01, 0. ]
      - [ 4.98753130e-01, 4.98753130e-01, 4.98753130e-01, 0., 0., 0., 0.,
          0., 4.98753130e-01, 6.18287265e-01, 2.31355831e-01,
          5.37991151e-02, 0., 0., 0., 1.55563056e-01, 3.85549992e-01,
          6.18287265e-01, 4.94800210e-01, 3.84268798e-02, 1.15280643e-01,
          0., 0., 0., 4.95130062e-01, 4.95130062e-01, 4.95130062e-01,
          6.57572687e-01, 6.57572687e-01, 8.30595568e-02, 0., 0., 0., 0.,
          0., 3.48902076e-01, 4.98747408e-01, 4.98747408e-01, 0., 0., 0.,
          0., 4.77136625e-03, 4.98747408e-01, 4.98747408e-01,
          1.27599999e-01, 0., 0., 0., 0., 0., 1.39717072e-01,
          6.91842139e-01, 6.91842139e-01, 4.92858499e-01, 6.06908143e-01,
          6.06908143e-01, 0., 0., 5.91779070e-04, 1.40746841e-02,
          1.08343491e-03, 1.18979678e-01, 4.21501487e-01, 4.21501487e-01,
          2.40206704e-01, 0., 0., 2.23097593e-01, 4.21501487e-01,
          4.21501487e-01, 4.21501487e-01, 4.71324205e-01, 4.71324205e-01,
          2.46205211e-01, 0., 0., 1.11247718e-01, 4.71324205e-01,
          4.71324205e-01, 1.83611855e-01, 6.73744380e-01, 6.73744380e-01,
          1.25150338e-01, 3.33114490e-02, 1.34345025e-01, 2.10434332e-01,
          1.45036718e-02, 0., 7.80845359e-02, 4.52206194e-01,
          4.52206194e-01, 1.40191674e-01, 1.67453751e-01, 3.15972328e-01,
          1.34116128e-01, 1.09549619e-01, 4.52206194e-01, 4.52206194e-01,
          9.32975020e-03, 9.61862272e-04, 1.20754810e-02, 0., 0., 0.,
          5.86637318e-01, 5.86637318e-01, 5.52830637e-01, 1.03346407e-01,
          6.75167620e-01, 6.75167620e-01, 0., 0., 1.53690204e-03,
          2.59113431e-01, 6.11105077e-02, 0., 5.88051118e-02,
          5.16725779e-01, 1.78592131e-01, 0., 0., 5.16725779e-01,
